#############################################################################
## Copyright (c) 1996, Carnegie Mellon University, Cambridge University,
## Ronald Rosenfeld and Philip Clarkson
## Version 3, Copyright (c) 2006, Carnegie Mellon University 
## Contributors includes Wen Xu, Ananlada Chotimongkol, 
## David Huggins-Daines, Arthur Chan and Alan Black 
#############################################################################
=============================================================================
===============  This file was produced by the CMU-Cambridge  ===============
===============     Statistical Language Modeling Toolkit     ===============
=============================================================================
This is a 3-gram language model, based on a vocabulary of 1455 words,
  which begins "</s>", "<s>", "aam"...
This is a CLOSED-vocabulary model
  (OOVs eliminated from training data and are forbidden in test data)
Good-Turing discounting was applied.
1-gram frequency of frequency : 800 
2-gram frequency of frequency : 3740 262 80 18 7 9 7 
3-gram frequency of frequency : 4675 144 33 10 7 7 7 
1-gram discounting ratios : 0.00 
2-gram discounting ratios : 0.13 0.45 0.29 0.48 
3-gram discounting ratios : 0.05 0.34 0.40 0.87 
This file is in the ARPA-standard format introduced by Doug Paul.

p(wd3|wd1,wd2)= if(trigram exists)           p_3(wd1,wd2,wd3)
                else if(bigram w1,w2 exists) bo_wt_2(w1,w2)*p(wd3|wd2)
                else                         p(wd3|w2)

p(wd2|wd1)= if(bigram exists) p_2(wd1,wd2)
            else              bo_wt_1(wd1)*p_1(wd2)

All probs and back-off weights (bo_wt) are given in log10 form.

Data formats:

Beginning of data mark: \data\
ngram 1=nr            # number of 1-grams
ngram 2=nr            # number of 2-grams
ngram 3=nr            # number of 3-grams

\1-grams:
p_1     wd_1 bo_wt_1
\2-grams:
p_2     wd_1 wd_2 bo_wt_2
\3-grams:
p_3     wd_1 wd_2 wd_3 

end of data mark: \end\

\data\
ngram 1=1455
ngram 2=4134
ngram 3=4892

\1-grams:
-0.9577 </s>	-2.6481
-0.9568 <s>	-0.0714
-3.3548 aam	-0.0586
-99.9990 aarn	-0.0607
-3.3548 aasm	-0.0569
-3.1787 aasn	-0.1840
-2.8107 aasy	-0.0052
-3.3548 af	-0.2112
-99.9990 afo	-0.0108
-3.0538 ai	-0.0019
-3.3548 an	-0.0613
-2.1644 anh	-0.0089
-99.9990 arnh	-0.0592
-99.9990 as	-0.0108
-99.9990 asc	-0.0607
-3.3548 asn	-0.0594
-99.9990 asnh	-0.0615
-3.1787 aso	-0.0603
-2.7016 awn	-0.0445
-2.7016 ba	-0.0490
-99.9990 baafy	-0.0609
-3.3548 baast	-0.0594
-99.9990 baaxy	-0.0611
-99.9990 baay	-0.0608
-2.8107 baf	-0.0883
-2.8107 bafn	-0.1114
-3.3548 bafo	-0.0613
-3.3548 bafy	-0.0570
-99.9990 bajch	-0.0615
-2.3336 bajn	-0.0139
-99.9990 ban	-0.0611
-99.9990 banh	-0.0108
-2.8777 bao	-0.1958
-2.8777 barn	-0.0580
-99.9990 barnh	-0.0615
-3.0538 baro	-0.0103
-99.9990 bary	-0.0608
-99.9990 bas	-0.0611
-3.1787 basn	-0.0592
-3.1787 baso	-0.0102
-2.6144 bawfng	-0.0289
-99.9990 bawng	-0.0612
-99.9990 bawsc	-0.0613
-3.0538 bawst	-0.1251
-99.9990 baxi	-0.0615
-99.9990 bay	-0.0596
-99.9990 beef	-0.0610
-2.7527 beejnh	-0.0055
-99.9990 beejt	-0.0600
-3.3548 been	-0.0605
-99.9990 bef	-0.0604
-99.9990 befo	-0.0108
-99.9990 ben	-0.0598
-3.0538 bes	-0.0607
-99.9990 bieefn	-0.0611
-3.3548 bieejt	-0.0108
-99.9990 bieen	-0.0610
-3.0538 bieern	-0.0980
-3.1787 bieeru	-0.0597
-3.0538 bieesn	-0.0095
-2.6558 bieest	-0.0545
-99.9990 bifa	-0.0611
-2.6144 bij	-0.0545
-99.9990 boj	-0.0611
-3.3548 bojn	-0.0612
-99.9990 boofi	-0.0607
-3.1787 booj	-0.0603
-99.9990 boojt	-0.0612
-3.3548 boorng	-0.0609
-3.3548 boos	-0.0046
-3.3548 boosc	-0.0596
-99.9990 boosi	-0.0608
-99.9990 boosn	-0.0605
-2.8777 bor	-0.0564
-99.9990 bow	-0.0615
-99.9990 bowi	-0.0613
-3.0538 bowri	-0.0576
-99.9990 bufi	-0.0615
-99.9990 buji	-0.0610
-99.9990 bujng	-0.0604
-3.1787 buoofn	-0.1333
-99.9990 buoojc	-0.0585
-99.9990 buoong	-0.0610
-99.9990 buoori	-0.0612
-99.9990 busn	-0.0580
-99.9990 bust	-0.0615
-3.3548 buwowsc	-0.0545
-3.1787 buwsc	-0.1839
-3.3548 ca	-0.0612
-3.1787 caafm	-0.0572
-2.8777 caafn	-0.0523
-3.0538 caafu	-0.0606
-99.9990 caajt	-0.0611
-99.9990 caaju	-0.0611
-99.9990 caajy	-0.0613
-3.1787 caasp	-0.0024
-99.9990 caasy	-0.0612
-3.0538 caau	-0.0578
-3.1787 caay	-0.0102
-3.3548 caf	-0.0609
-2.9568 cafng	-0.2111
-99.9990 cafu	-0.0615
-99.9990 cajm	-0.0615
-99.9990 cajn	-0.0108
-99.9990 caju	-0.0108
-3.3548 cam	-0.0603
-2.8107 cao	-0.0553
-2.4797 car	-0.0382
-2.9568 carm	-0.0054
-99.9990 carng	-0.0612
-2.8107 carnh	-0.0528
-3.1787 cas	-0.0606
-2.1934 casc	-0.0632
-2.8777 casch	-0.0554
-2.6558 casi	-0.0581
-3.1787 casnh	-0.0589
-3.3548 caso	-0.0580
-99.9990 cawn	-0.0607
-99.9990 cawng	-0.0108
-3.3548 cawsp	-0.0609
-99.9990 cawst	-0.0108
-2.9568 cha	-0.1071
-99.9990 chaafm	-0.0613
-3.3548 chaajm	-0.0595
-99.9990 chaajt	-0.0108
-99.9990 chaaju	-0.0108
-99.9990 chaam	-0.0613
-3.0538 chaan	-0.0606
-3.1787 chaast	-0.0599
-99.9990 chaau	-0.0615
-99.9990 chaf	-0.0615
-3.3548 chafo	-0.0602
-3.1787 chajy	-0.1840
-99.9990 chang	-0.0615
-99.9990 char	-0.0615
-3.3548 chary	-0.0613
-3.3548 chasu	-0.0104
-3.3548 chawjn	-0.0095
-3.3548 chawjt	-0.0091
-3.3548 chawm	-0.0615
-2.9568 chawrng	-0.0474
-99.9990 chawsc	-0.0551
-99.9990 chawsm	-0.0600
-99.9990 chaxo	-0.0108
-99.9990 che	-0.0604
-99.9990 chee	-0.0585
-99.9990 cheenh	-0.0596
-3.3548 chees	-0.0535
-99.9990 cheest	-0.0608
-99.9990 chef	-0.0609
-99.9990 chefn	-0.0613
-99.9990 chen	-0.0612
-3.1787 chesm	-0.0610
-3.3548 chesn	-0.2112
-3.3548 chi	-0.0611
-99.9990 chia	-0.0612
-3.1787 chieefu	-0.1329
-2.8107 chieesc	-0.0610
-3.0538 chieesn	-0.0610
-99.9990 chieest	-0.0612
-99.9990 chieesu	-0.0108
-99.9990 chif	-0.0615
-3.0538 chij	-0.0594
-99.9990 chim	-0.0615
-2.4005 chir	-0.1081
-99.9990 chirnh	-0.0610
-3.0538 chis	-0.0520
-99.9990 chisn	-0.0615
-2.9568 chisnh	-0.0090
-2.1644 cho	-0.0930
-3.1787 chojn	-0.0596
-99.9990 chong	-0.0615
-99.9990 choong	-0.0615
-99.9990 choosn	-0.0597
-3.3548 choosng	-0.0596
-99.9990 choox	-0.0615
-99.9990 chos	-0.0606
-99.9990 chosng	-0.0610
-2.9568 chowi	-0.0558
-99.9990 chowr	-0.0588
-99.9990 chows	-0.0560
-99.9990 chua	-0.0108
-3.0538 chuaarn	-0.0569
-99.9990 chufa	-0.0108
-99.9990 chufi	-0.0607
-99.9990 chui	-0.0586
-99.9990 chujc	-0.0615
-99.9990 chum	-0.0108
-3.0538 chung	-0.0959
-99.9990 chuoojt	-0.0108
-99.9990 chuoong	-0.0615
-99.9990 chuoosi	-0.0108
-3.3548 chur	-0.0613
-3.3548 chus	-0.0564
-2.4005 chusng	-0.1962
-3.3548 chuwa	-0.0578
-99.9990 chuwowng	-0.0612
-3.3548 chuws	-0.2564
-3.3548 chuwsc	-0.0609
-3.0538 chuwsng	-0.0990
-3.3548 chuwx	-0.0105
-99.9990 chuwxa	-0.0615
-3.0538 chuyeejn	-0.0073
-3.0538 chuyeen	-0.0591
-3.3548 chuyeern	-0.0610
-99.9990 chuyeesn	-0.0615
-99.9990 cof	-0.0108
-99.9990 cofi	-0.0608
-99.9990 cofm	-0.0615
-2.5097 cofn	-0.1123
-99.9990 cofng	-0.0574
-3.3548 coi	-0.0605
-3.1787 cojc	-0.0595
-2.3336 con	-0.0054
-99.9990 cong	-0.0612
-2.5766 coo	-0.0669
-99.9990 coojng	-0.0600
-2.4005 coong	-0.1272
-3.1787 coor	-0.0574
-99.9990 coorng	-0.0610
-2.8107 coos	-0.0946
-99.9990 coosc	-0.0615
-3.3548 cor	-0.0108
-1.8363 cos	-0.1733
-3.1787 cow	-0.0593
-3.3548 cowf	-0.0609
-99.9990 cowfi	-0.0612
-3.3548 cowm	-0.0586
-3.1787 cown	-0.0603
-99.9990 cowx	-0.0108
-99.9990 coxi	-0.0574
-99.9990 cua	-0.0592
-2.8107 cufng	0.0012
-3.0538 cung	-0.1489
-99.9990 cuoofng	-0.0613
-3.1787 cuoojc	-0.0607
-99.9990 cuoojn	-0.0602
-2.8777 cuoosi	-0.1452
-99.9990 cuoosn	-0.0603
-2.0326 cura	-0.1130
-99.9990 curi	-0.0615
-3.1787 cus	-0.0615
-99.9990 cusc	-0.0611
-3.1787 cuwowfi	-0.0089
-3.3548 cuwra	-0.0575
-2.8107 cuws	-0.0588
-99.9990 cuwsng	-0.0613
-99.9990 cuwsu	-0.0108
-2.5419 cuxng	-0.1212
-2.9568 da	-0.1304
-99.9990 daafn	-0.0596
-99.9990 daafu	-0.0615
-99.9990 daajy	-0.0613
-2.8107 daan	-0.0443
-99.9990 daarn	-0.0108
-3.3548 daasu	-0.0609
-99.9990 daau	-0.0108
-99.9990 daaxn	-0.0607
-3.1787 daay	-0.0613
-2.9568 dafi	-0.0027
-3.1787 dafnh	-0.1303
-99.9990 dai	-0.0615
-99.9990 dajng	-0.0611
-99.9990 dang	-0.0612
-99.9990 danh	-0.0612
-3.3548 dao	-0.0596
-3.3548 dasc	-0.0611
-3.1787 dasng	-0.0014
-99.9990 daso	-0.0613
-99.9990 dawfng	-0.0615
-99.9990 dawjc	-0.0604
-99.9990 dax	-0.0598
-3.3548 daxy	-0.0596
-3.3548 dda	-0.0601
-99.9990 ddaafm	-0.0615
-2.5766 ddaafu	-0.0747
-3.0538 ddaafy	-0.0596
-99.9990 ddaajt	-0.0612
-99.9990 ddaaju	-0.0615
-99.9990 ddaam	-0.0612
-3.0538 ddaast	-0.0599
-3.3548 ddaasu	-0.0100
-3.1787 ddaasy	-0.0050
-2.8777 ddaau	-0.0026
-2.6558 ddaay	-0.0542
-99.9990 ddaf	-0.0615
-99.9990 ddafi	-0.0593
-2.8777 ddafn	-0.1298
-99.9990 ddafnh	-0.0609
-3.1787 ddafo	-0.0080
-3.0538 ddaji	-0.0582
-99.9990 ddajn	-0.0586
-99.9990 ddajo	-0.0595
-99.9990 ddajp	-0.0108
-3.1787 ddajt	-0.0574
-2.4797 ddang	-0.0730
-99.9990 ddarng	-0.0108
-99.9990 ddaro	-0.0610
-3.1787 ddas	-0.0089
-99.9990 ddasm	-0.0595
-99.9990 ddasnh	-0.0598
-99.9990 ddasp	-0.0108
-99.9990 ddasy	-0.0611
-2.8107 ddau	-0.0538
-99.9990 ddawfng	-0.0612
-3.3548 ddawjc	-0.0613
-2.8777 ddawjt	-0.0961
-2.3134 ddax	-0.0660
-99.9990 dde	-0.0608
-3.1787 ddeef	-0.0578
-99.9990 ddeefn	-0.0615
-3.1787 ddeefu	-0.0105
-3.0538 ddeem	-0.0974
-2.2756 ddeer	-0.0640
-99.9990 ddeesm	-0.0615
-2.4517 ddeesn	-0.0197
-99.9990 ddeexnh	-0.0592
-3.0538 ddejp	-0.0968
-3.0538 dden	-0.0085
-99.9990 ddeo	-0.0615
-2.2087 ddi	-0.1164
-2.6144 ddieefu	-0.1096
-3.3548 ddieejn	-0.0607
-99.9990 ddieeju	-0.0610
-99.9990 ddieen	-0.0615
-2.8777 ddieerm	-0.0566
-99.9990 ddieeru	-0.0108
-99.9990 ddifnh	-0.0603
-99.9990 ddifu	-0.0613
-99.9990 ddija	-0.0560
-3.3548 ddijnh	-0.2112
-99.9990 ddisch	-0.0610
-99.9990 ddo	-0.0611
-3.1787 ddoajn	-0.0583
-99.9990 ddofi	-0.0602
-99.9990 ddofn	-0.0611
-99.9990 ddojc	-0.0580
-99.9990 ddong	-0.0612
-3.1787 ddoof	-0.0566
-3.3548 ddoofi	-0.0108
-2.4797 ddoofng	-0.0218
-3.3548 ddooi	-0.0605
-3.3548 ddooj	-0.0560
-99.9990 ddoojc	-0.0108
-3.1787 ddooji	-0.0610
-2.9568 ddoojng	-0.0047
-99.9990 ddoojt	-0.0613
-3.0538 ddoong	-0.0995
-2.9568 ddoori	-0.0536
-3.3548 ddoosi	-0.0611
-99.9990 ddoosng	-0.0611
-99.9990 ddoost	-0.0615
-3.3548 ddor	-0.0108
-2.4517 ddos	-0.3397
-99.9990 ddosa	-0.0613
-99.9990 ddosng	-0.0615
-2.9568 ddowfi	-0.0057
-3.3548 ddowfn	-0.0574
-3.3548 ddowjt	-0.0607
-3.3548 ddown	-0.0610
-3.3548 ddowsn	-0.2112
-99.9990 ddujc	-0.0574
-99.9990 dduooi	-0.0108
-99.9990 dduoosc	-0.0108
-3.0538 ddur	-0.0595
-99.9990 ddusc	-0.0608
-3.1787 ddusng	-0.0608
-3.1787 dduwa	-0.0545
-3.1787 dduwfng	-0.0606
-2.6558 dduwowfng	-0.0336
-2.0995 dduwowjc	-0.1138
-3.3548 dduwsc	-0.0555
-3.3548 dduwsng	-0.0595
-99.9990 dduxa	-0.0108
-3.3548 deex	-0.0609
-99.9990 def	-0.0608
-3.3548 dieexn	-0.0598
-99.9990 dif	-0.0574
-99.9990 dijch	-0.0609
-99.9990 diju	-0.0612
-99.9990 disnh	-0.0613
-99.9990 dix	-0.0615
-99.9990 dixa	-0.0108
-3.1787 do	-0.0567
-3.3548 doanh	-0.0105
-3.0538 dofng	-0.0577
-99.9990 dojc	-0.0615
-99.9990 dooji	-0.0598
-99.9990 doong	-0.0610
-99.9990 doosc	-0.0108
-99.9990 dows	-0.0615
-99.9990 doxi	-0.0611
-99.9990 du	-0.0609
-3.3548 duf	-0.0547
-99.9990 dufi	-0.0615
-3.3548 dufng	-0.0610
-3.1787 dujng	-0.0097
-99.9990 dung	-0.0586
-99.9990 duw	-0.0613
-3.3548 duwfng	-0.0595
-99.9990 duwj	-0.0615
-99.9990 duwja	-0.0596
-3.1787 duwjng	-0.0096
-3.3548 duwowfng	-0.2610
-99.9990 duwowjc	-0.0108
-3.3548 duwowng	-0.0608
-2.9568 duwowsi	-0.0569
-99.9990 duwst	-0.0609
-99.9990 duxng	-0.0609
-3.3548 duy	-0.2612
-99.9990 duyeen	-0.0613
-99.9990 ee	-0.0600
-2.4254 em	-0.0299
-3.3548 esp	-0.0610
-3.0538 gaafn	-0.1468
-99.9990 gaafy	-0.0615
-3.3548 gaasp	-0.2112
-99.9990 gaasu	-0.0612
-2.8107 gaay	-0.0427
-99.9990 gaf	-0.0608
-3.3548 gajch	-0.0108
-3.3548 gasi	-0.0090
-3.0538 gasnh	-0.0596
-2.7527 gawjp	-0.0520
-99.9990 gawsm	-0.0611
-3.1787 gawsng	-0.1816
-99.9990 gen	-0.0593
-99.9990 ghe	-0.0604
-99.9990 ghex	-0.0108
-3.1787 ghi	-0.0561
-2.9568 gia	-0.0084
-99.9990 giaafy	-0.0610
-99.9990 giaajt	-0.0615
-99.9990 giaasy	-0.0108
-99.9990 giaay	-0.0615
-3.3548 giaf	-0.0096
-99.9990 giafu	-0.0610
-99.9990 giam	-0.0551
-99.9990 gian	-0.0607
-99.9990 giang	-0.0588
-3.3548 giao	-0.0592
-99.9990 giar	-0.0608
-99.9990 giarm	-0.0595
-99.9990 giarn	-0.0566
-3.3548 giarnh	-0.0088
-3.1787 gias	-0.0597
-99.9990 giasm	-0.0607
-3.3548 giaxn	-0.0560
-99.9990 giaxy	-0.0615
-99.9990 gieest	-0.0615
-99.9990 giefm	-0.0613
-2.7527 gif	-0.0411
-99.9990 gifn	-0.0615
-3.3548 giojng	-0.0108
-99.9990 gioosng	-0.0613
-3.1787 giori	-0.0595
-2.9568 gios	-0.0566
-2.8107 giowf	-0.0410
-3.3548 giowsi	-0.0593
-99.9990 giuja	-0.0108
-3.3548 giusp	-0.0603
-3.3548 giuwx	-0.0587
-2.9568 giuwxa	-0.0028
-99.9990 giux	-0.0609
-99.9990 gofn	-0.0108
-3.0538 goji	-0.0548
-99.9990 gojn	-0.0615
-99.9990 goofng	-0.0611
-99.9990 goosc	-0.0108
-99.9990 gowsm	-0.0605
-99.9990 gowx	-0.0599
-3.1787 gox	-0.0594
-99.9990 guoojc	-0.0596
-99.9990 guwowng	-0.0609
-3.3548 guwri	-0.0608
-3.1787 haaju	-0.1825
-99.9990 haasp	-0.0615
-3.3548 haf	-0.0572
-3.3548 hafi	-0.0104
-99.9990 hafn	-0.0610
-3.3548 hafng	-0.0613
-3.1787 hafnh	-0.1333
-3.3548 hafo	-0.0615
-2.6144 hai	-0.0833
-99.9990 hajc	-0.0612
-3.3548 hajn	-0.0098
-99.9990 hajo	-0.0613
-99.9990 ham	-0.0607
-99.9990 hang	-0.0593
-99.9990 har	-0.0108
-3.1787 hast	-0.0604
-99.9990 hawfng	-0.0605
-99.9990 hawsn	-0.0612
-99.9990 haxng	-0.0611
-2.9568 haxy	-0.0576
-2.6558 hay	-0.0538
-2.8107 heest	-0.0416
-3.3548 hef	-0.0605
-99.9990 hejn	-0.0603
-3.3548 heo	-0.0607
-99.9990 hi	-0.0609
-99.9990 hieefn	-0.0108
-2.5766 hieejn	-0.0564
-3.3548 hieeju	-0.0606
-99.9990 hieen	-0.0593
-99.9990 hieerm	-0.0610
-99.9990 hieeru	-0.0608
-99.9990 hieesm	-0.0595
-99.9990 hieesu	-0.0612
-3.0538 hifnh	-0.0059
-99.9990 his	-0.0615
-3.3548 hiu	-0.0608
-99.9990 hoa	-0.0615
-3.3548 hoafn	-0.0602
-3.3548 hoafng	-0.0612
-99.9990 hoafnh	-0.0613
-99.9990 hoajch	-0.0610
-99.9990 hoaji	-0.0574
-3.3548 hoajt	-0.0604
-99.9990 hoang	-0.0585
-99.9990 hoarng	-0.0615
-3.3548 hoasc	-0.2112
-99.9990 hoawjc	-0.0606
-3.3548 hofa	-0.0558
-2.8777 hoj	-0.0573
-99.9990 hoja	-0.0612
-2.7527 hojc	-0.0023
-99.9990 hoo	-0.0615
-2.9568 hoof	-0.0599
-99.9990 hoofn	-0.0574
-3.3548 hoofng	-0.0570
-99.9990 hooj	-0.0608
-2.9568 hooji	-0.0053
-3.1787 hoom	-0.1501
-99.9990 hoos	-0.0602
-99.9990 hoox	-0.0615
-3.0538 hori	-0.0070
-99.9990 hosa	-0.0613
-99.9990 hosc	-0.0615
-99.9990 howi	-0.0604
-2.8777 howjp	-0.0630
-2.8777 hown	-0.1409
-99.9990 howr	-0.0108
-99.9990 huaasn	-0.0613
-99.9990 hueef	-0.0615
-99.9990 hueesch	-0.0609
-99.9990 hun	-0.0615
-99.9990 huow	-0.0609
-99.9990 hury	-0.0612
-99.9990 husi	-0.0613
-3.3548 hust	-0.0613
-99.9990 huwfng	-0.0615
-99.9990 huwjc	-0.0599
-99.9990 huwng	-0.0566
-3.3548 huwowng	-0.0595
-99.9990 huwowsng	-0.0613
-99.9990 huwsng	-0.0596
-2.9568 huwxu	-0.1261
-99.9990 huxm	-0.0605
-99.9990 huyeexn	-0.0108
-99.9990 huyfnh	-0.0610
-99.9990 hy	-0.0609
-99.9990 i	-0.0615
-99.9990 im	-0.0615
-99.9990 irm	-0.0108
-3.3548 isch	-0.0588
-99.9990 ist	-0.0605
-99.9990 keejnh	-0.0596
-99.9990 keer	-0.0604
-3.3548 kees	-0.0608
-2.6558 keest	-0.1065
-99.9990 kejt	-0.0597
-3.0538 ker	-0.0613
-99.9990 keso	-0.0611
-99.9990 khaaru	-0.0600
-99.9990 khaasu	-0.0609
-99.9990 khafng	-0.0615
-3.3548 khar	-0.2615
-99.9990 khas	-0.0615
-3.0538 khasc	-0.2343
-2.8777 khasch	-0.1139
-99.9990 khasm	-0.0611
-99.9990 khasn	-0.0615
-99.9990 khawn	-0.0609
-99.9990 khawsc	-0.0615
-99.9990 khe	-0.0615
-99.9990 khen	-0.0598
-99.9990 kher	-0.0596
-99.9990 kheso	-0.0613
-99.9990 khex	-0.0615
-2.3548 khi	-0.0170
-3.0538 khieesn	-0.1473
-99.9990 khinh	-0.0595
-99.9990 khir	-0.0108
-3.3548 khis	-0.0611
-99.9990 khisu	-0.0615
-99.9990 kho	-0.0615
-2.9568 khoa	-0.2294
-99.9990 khoanh	-0.0615
-99.9990 khoasn	-0.0615
-99.9990 khooi	-0.0613
-1.8999 khoong	-0.1508
-3.3548 khoor	-0.0596
-99.9990 khori	-0.0613
-3.1787 khos	-0.0545
-3.3548 khosa	-0.0605
-3.3548 khosc	-0.0084
-99.9990 khowri	-0.0574
-3.3548 khu	-0.0611
-99.9990 khurng	-0.0615
-3.3548 khusc	-0.0607
-99.9990 khuyeen	-0.0610
-99.9990 khuyfnh	-0.0600
-3.3548 kia	-0.0603
-99.9990 kieefm	-0.0613
-99.9990 kieejn	-0.0108
-99.9990 kieerm	-0.0615
-3.3548 kieeru	-0.0588
-3.3548 kieesm	-0.2614
-99.9990 kieesn	-0.0560
-99.9990 kijch	-0.0108
-3.3548 kijp	-0.0615
-3.3548 kinh	-0.0609
-3.3548 kisch	-0.0104
-99.9990 kisn	-0.0610
-99.9990 kisnh	-0.0108
-99.9990 kix	-0.0615
-99.9990 kyr	-0.0606
-99.9990 kys	-0.0609
-99.9990 la	-0.0613
-3.3548 laafm	-0.0566
-2.8107 laafn	-0.0046
-99.9990 laafy	-0.0605
-3.3548 laajp	-0.0610
-3.1787 laajt	-0.0609
-99.9990 laaju	-0.0108
-2.9568 laasy	-0.0562
-3.1787 laau	-0.0040
-1.9482 laf	-0.0473
-2.3548 lafm	-0.0605
-99.9990 lafn	-0.0610
-99.9990 lafng	-0.0597
-3.3548 lafnh	-0.2112
-99.9990 lai	-0.0108
-99.9990 laj	-0.0108
-99.9990 lajc	-0.0593
-99.9990 lajch	-0.0615
-2.4517 laji	-0.0446
-99.9990 lao	-0.0588
-99.9990 lari	-0.0615
-99.9990 larnh	-0.0615
-3.1787 las	-0.0610
-99.9990 last	-0.0598
-99.9990 lasy	-0.0108
-99.9990 lau	-0.0615
-99.9990 lawfng	-0.0615
-3.3548 lawjn	-0.0609
-3.3548 lawjng	-0.0583
-99.9990 lawjp	-0.0599
-2.9568 lawsm	-0.0052
-99.9990 laxm	-0.0599
-99.9990 le	-0.0108
-99.9990 lee	-0.0607
-2.3771 leen	-0.2137
-99.9990 leesu	-0.0600
-99.9990 len	-0.0615
-99.9990 ler	-0.0108
-99.9990 les	-0.0585
-99.9990 lesc	-0.0108
-99.9990 lesn	-0.0608
-3.1787 lex	-0.0595
-99.9990 lieefn	-0.0108
-99.9990 lieejt	-0.0609
-3.3548 lieeju	-0.0611
-99.9990 lieen	-0.0615
-99.9990 lieeu	-0.0611
-99.9990 lijch	-0.0606
-3.3548 lijnh	-0.0077
-99.9990 linh	-0.0613
-99.9990 lisp	-0.0611
-3.3548 lixnh	-0.0613
-3.1787 lo	-0.0077
-99.9990 loa	-0.0611
-99.9990 loaji	-0.0613
-99.9990 loawfng	-0.0615
-99.9990 lof	-0.0613
-99.9990 lofa	-0.0108
-2.9568 lofng	-0.0787
-99.9990 lojc	-0.0612
-99.9990 loojt	-0.0615
-99.9990 loong	-0.0615
-99.9990 loosc	-0.0600
-3.3548 loox	-0.0612
-3.1787 looxi	-0.0060
-99.9990 lost	-0.0608
-3.3548 low	-0.0609
-3.1787 lowfi	-0.0612
-99.9990 lowfn	-0.0607
-99.9990 lowjn	-0.0551
-99.9990 lowr	-0.0108
-3.3548 lowsn	-0.0600
-99.9990 luaajn	-0.0596
-99.9990 luaajt	-0.0609
-99.9990 lufng	-0.0615
-2.6558 luoon	0.0007
-99.9990 lusa	-0.0613
-3.0538 lusc	-0.0562
-99.9990 luw	-0.0613
-99.9990 luwja	-0.0612
-3.0538 luwjc	-0.0095
-3.1787 luwng	-0.0108
-3.3548 luwowjn	-0.0108
-3.1787 luwowjng	-0.0588
-99.9990 luwowng	-0.0606
-99.9990 luwowst	-0.0615
-99.9990 luwowxng	-0.0108
-3.3548 luwra	-0.0615
-99.9990 luwu	-0.0613
-3.3548 lux	-0.0606
-99.9990 luxy	-0.0615
-3.3548 luyeejn	-0.0594
-99.9990 luyeesn	-0.0615
-3.0538 lys	-0.0092
-99.9990 ma	-0.0615
-99.9990 maary	-0.0579
-3.1787 maast	-0.0029
-3.0538 maasy	-0.1483
-99.9990 maau	-0.0615
-2.3771 maf	-0.0801
-99.9990 mafng	-0.0574
-3.1787 mafu	-0.0599
-3.1787 mai	-0.0590
-99.9990 majch	-0.0108
-99.9990 majng	-0.0596
-99.9990 majnh	-0.0108
-2.9568 mang	-0.1254
-99.9990 manh	-0.0612
-3.3548 marnh	-0.0108
-3.3548 mas	-0.0599
-2.9568 masi	-0.1304
-99.9990 masn	-0.0108
-3.3548 masu	-0.0104
-2.9568 masy	-0.0074
-99.9990 mawjn	-0.0108
-2.8777 mawjt	-0.0575
-2.7527 mawst	-0.0332
-99.9990 maxng	-0.0586
-99.9990 may	-0.0613
-3.3548 meefm	-0.0102
-99.9990 meej	-0.0604
-99.9990 meejt	-0.0615
-99.9990 meesn	-0.0611
-2.7527 mej	-0.0437
-99.9990 mest	-0.0611
-99.9990 mieejng	-0.0606
-2.7527 mifnh	-0.0041
-99.9990 min	-0.0613
-2.9568 minh	-0.0018
-99.9990 mof	-0.0108
-99.9990 mojc	-0.0108
-2.8107 moji	-0.1470
-99.9990 mojt	-0.0612
-3.3548 mong	-0.0577
-99.9990 mooi	-0.0606
-99.9990 moojc	-0.0108
-2.0124 moojt	-0.0649
-99.9990 moor	-0.0108
-3.1787 moosi	-0.0096
-3.1787 mooxi	-0.0594
-99.9990 mori	-0.0108
-99.9990 mosn	-0.0615
-99.9990 mosp	-0.0615
-3.3548 mow	-0.0603
-3.1787 mowfi	-0.0606
-3.3548 mown	-0.0615
-3.1787 mowr	-0.1834
-99.9990 mowrn	-0.0598
-2.5766 mowsi	0.0048
-99.9990 moxm	-0.0615
-3.0538 mua	-0.0079
-3.3548 muf	-0.0611
-99.9990 mufn	-0.0108
-3.3548 mujc	-0.0103
-99.9990 mun	-0.0108
-99.9990 muoosi	-0.0600
-2.7527 muoosn	-0.0561
-99.9990 muooxng	-0.0108
-3.3548 muwa	-0.0103
-99.9990 muwjc	-0.0108
-99.9990 muwowfi	-0.0594
-99.9990 muwowfng	-0.0615
-99.9990 muwowi	-0.0593
-99.9990 muwowsn	-0.0108
-3.3548 muxi	-0.0605
-3.3548 myx	-0.2112
-3.0538 naang	-0.0598
-3.3548 naasu	-0.0606
-99.9990 nafnh	-0.0108
-2.6558 nafo	-0.0708
-2.2941 nafy	-0.1569
-3.1787 najn	-0.1327
-99.9990 najnh	-0.0612
-3.3548 nam	-0.0104
-2.9568 nawfm	-0.0533
-99.9990 nawjng	-0.0108
-3.1787 nawm	-0.0615
-3.0538 nawng	-0.0608
-3.1787 nawsng	-0.0096
-99.9990 naxo	-0.0108
-2.8107 nay	-0.0530
-99.9990 neefn	-0.0611
-2.8107 neen	-0.0563
-2.7527 neesu	-0.0874
-99.9990 neeu	-0.0108
-99.9990 nejp	-0.0598
-99.9990 nesm	-0.0613
-99.9990 nesn	-0.0610
-99.9990 nest	-0.0615
-99.9990 ngaajm	-0.0615
-99.9990 ngaajp	-0.0108
-99.9990 ngaast	-0.0615
-99.9990 ngaaxm	-0.0585
-3.3548 ngafi	-0.0101
-99.9990 ngafn	-0.0600
-99.9990 ngafnh	-0.0613
-2.6558 ngafy	-0.0755
-99.9990 ngao	-0.0108
-99.9990 ngasy	-0.0108
-3.1787 ngawn	-0.0601
-2.8777 ngay	-0.1118
-2.8777 nghe	-0.0654
-3.0538 ngheej	-0.0540
-99.9990 ngheeu	-0.0615
-99.9990 nghieefn	-0.0615
-3.1787 nghieejm	-0.0103
-99.9990 nghieejn	-0.0615
-3.0538 nghieejp	-0.0053
-99.9990 nghieejt	-0.0566
-99.9990 nghieem	-0.0610
-99.9990 nghij	-0.0551
-99.9990 nghir	-0.0615
-99.9990 nghix	-0.0599
-3.1787 nghixa	-0.1281
-2.9568 ngoafi	-0.0049
-3.3548 ngoaji	-0.0099
-99.9990 ngoajn	-0.0613
-99.9990 ngoasch	-0.0600
-99.9990 ngoasi	-0.0600
-99.9990 ngoaso	-0.0615
-99.9990 ngoawfn	-0.0615
-99.9990 ngoawfng	-0.0604
-99.9990 ngoefo	-0.0593
-99.9990 ngojc	-0.0613
-99.9990 ngojn	-0.0615
-3.0538 ngon	-0.0528
-3.1787 ngoofi	-0.0595
-99.9990 ngooi	-0.0606
-3.3548 ngos	-0.0585
-99.9990 ngose	-0.0604
-99.9990 ngosi	-0.0613
-3.0538 ngosn	-0.1255
-99.9990 ngowf	-0.0615
-99.9990 ngowi	-0.0108
-99.9990 ngowj	-0.0609
-99.9990 ngowst	-0.0108
-99.9990 ngox	-0.0613
-99.9990 ngujp	-0.0615
-99.9990 nguoofn	-0.0615
-99.9990 nguooji	-0.0615
-2.8777 ngur	-0.0550
-99.9990 nguw	-0.0608
-99.9990 nguwfa	-0.0587
-99.9990 nguwja	-0.0615
-2.3134 nguwowfi	-0.0365
-3.3548 nguwowjc	-0.0581
-99.9990 nguwowjng	-0.0615
-99.9990 nguy	-0.0615
-3.1787 nguyeejn	-0.1827
-2.9568 nguyeen	-0.1279
-99.9990 nguyeexn	-0.0613
-99.9990 nha	-0.0613
-2.8777 nhaajn	-0.1093
-99.9990 nhaajt	-0.0598
-99.9990 nhaaju	-0.0108
-2.8777 nhaan	-0.0519
-2.7527 nhaast	-0.0651
-2.4797 nhaf	-0.0131
-99.9990 nhafo	-0.0108
-3.0538 nhajc	-0.0946
-99.9990 nhajy	-0.0610
-3.3548 nhanh	-0.0099
-99.9990 nhari	-0.0615
-99.9990 nhary	-0.0615
-99.9990 nhasy	-0.0615
-3.1787 nhau	-0.0598
-99.9990 nhawfm	-0.0551
-99.9990 nhawfng	-0.0611
-99.9990 nhawng	-0.0615
-99.9990 nhawsn	-0.0611
-99.9990 nhaxo	-0.0610
-99.9990 nhay	-0.0596
-99.9990 nhej	-0.0611
-3.3548 nhejp	-0.0093
-99.9990 nhen	-0.0610
-99.9990 nhes	-0.0108
-2.5097 nhieefu	-0.0745
-3.1787 nhieejm	-0.0580
-3.0538 nhieen	-0.0035
-99.9990 nhieexm	-0.0615
-2.8107 nhifn	-0.1017
-99.9990 nhir	-0.0108
-99.9990 nhist	-0.0108
-99.9990 nhoasng	-0.0108
-99.9990 nhoe	-0.0615
-99.9990 nhoest	-0.0598
-99.9990 nhojn	-0.0613
-99.9990 nhoorn	-0.0108
-2.8777 nhor	-0.0496
-99.9990 nhosc	-0.0591
-2.9568 nhosm	-0.0733
-3.0538 nhows	-0.0076
-99.9990 nhoxn	-0.0606
-3.3548 nhu	-0.0103
-99.9990 nhufi	-0.0108
-2.4254 nhuw	-0.0810
-99.9990 nhuwja	-0.0613
-2.5419 nhuwng	-0.1015
-1.9931 nhuwxng	-0.1184
-99.9990 ni	-0.0603
-3.3548 nieefm	-0.0615
-99.9990 nieeu	-0.0596
-99.9990 niju	-0.0599
-99.9990 nisch	-0.0612
-99.9990 niu	-0.0586
-99.9990 nojc	-0.0605
-3.1787 nooji	-0.0605
-99.9990 noor	-0.0108
-3.3548 noori	-0.0596
-3.3548 noox	-0.2615
-3.3548 nooxi	-0.0608
-2.6558 nos	-0.0643
-2.6144 nosi	-0.0034
-99.9990 nosng	-0.0108
-3.1787 nowi	-0.0098
-3.3548 nuooi	-0.0525
-99.9990 nusi	-0.0612
-2.6558 nuwowsc	-0.0590
-2.9568 nuwra	-0.1306
-3.0538 nuwx	-0.0603
-2.7527 nuwxa	-0.9610
-99.9990 nuxng	-0.0615
-99.9990 ofa	-0.0591
-99.9990 oo	-0.0615
-99.9990 oofn	-0.0615
-99.9990 oofng	-0.0615
-99.9990 oojc	-0.0585
-99.9990 oojp	-0.0108
-3.3548 oom	-0.0074
-2.5766 oong	-0.0297
-99.9990 oor	-0.0607
-99.9990 oorng	-0.0602
-3.3548 oosm	-0.0108
-99.9990 oosng	-0.0615
-99.9990 owf	-0.0611
-99.9990 own	-0.0610
-2.4517 owr	-0.0847
-3.3548 pha	-0.0602
-3.0538 phaafn	-0.0080
-99.9990 phaan	-0.0615
-3.3548 phaarm	-0.0105
-99.9990 phaasn	-0.0615
-99.9990 phaast	-0.0108
-99.9990 phafm	-0.0605
-99.9990 phajm	-0.0612
-99.9990 phajt	-0.0108
-2.2941 phari	-0.0759
-3.1787 pharn	-0.0591
-3.0538 phas	-0.0101
-99.9990 phasc	-0.0615
-99.9990 phasch	-0.0609
-99.9990 phasi	-0.0572
-99.9990 phaso	-0.0605
-3.1787 phasp	-0.1337
-2.8777 phast	-0.1653
-99.9990 pheest	-0.0615
-3.3548 phesp	-0.0567
-99.9990 phest	-0.0108
-99.9990 phieen	-0.0613
-2.8777 phim	-0.0653
-3.3548 phis	-0.0611
-3.3548 phisa	-0.0582
-99.9990 phof	-0.0108
-2.9568 phofng	-0.0581
-99.9990 phojt	-0.0588
-3.1787 phong	-0.1333
-3.0538 phoos	-0.0990
-99.9990 phooxng	-0.0611
-3.0538 phosng	-0.0573
-99.9990 phost	-0.0596
-99.9990 phow	-0.0615
-99.9990 phowf	-0.0108
-99.9990 phowr	-0.0605
-99.9990 phu	-0.0615
-3.3548 phuf	-0.0609
-99.9990 phuj	-0.0615
-99.9990 phujc	-0.0585
-99.9990 phur	-0.0108
-99.9990 phust	-0.0615
-99.9990 phuwowfng	-0.0615
-2.9568 phuwowng	-0.0600
-2.7016 qua	-0.0377
-99.9990 quaafn	-0.0615
-99.9990 quaajy	-0.0611
-99.9990 quaan	-0.0574
-99.9990 quaf	-0.0615
-99.9990 quajch	-0.0608
-99.9990 quajnh	-0.0613
-3.3548 quan	-0.0607
-99.9990 quanh	-0.0615
-2.8107 quar	0.0022
-3.3548 quarn	-0.0608
-99.9990 quarng	-0.0613
-2.6144 quas	-0.0701
-99.9990 quasch	-0.0612
-3.3548 quasn	-0.0604
-99.9990 quasnh	-0.0613
-99.9990 quawrng	-0.0588
-3.3548 quay	-0.0609
-99.9990 que	-0.0615
-3.3548 quee	-0.0105
-2.9568 quoosc	-0.1291
-3.3548 quyeefn	-0.0102
-99.9990 quyeern	-0.0615
-3.3548 quyeest	-0.0613
-3.3548 quys	-0.0609
-2.2087 ra	-0.0095
-99.9990 raam	-0.0615
-2.7527 raast	-0.0993
-99.9990 ran	-0.0605
-99.9990 rang	-0.0108
-99.9990 rasi	-0.0612
-3.0538 rawfng	-0.0751
-3.1787 rawn	-0.0603
-99.9990 rawsc	-0.0613
-3.3548 rawsn	-0.0613
-99.9990 reo	-0.0612
-99.9990 ria	-0.0613
-3.1787 rieeng	-0.0102
-99.9990 rif	-0.0108
-99.9990 rifnh	-0.0615
-99.9990 rira	-0.0608
-99.9990 ro	-0.0604
-99.9990 rong	-0.0108
-2.5419 roofi	-0.2432
-3.1787 roojng	-0.0104
-3.3548 roosi	-0.0105
-99.9990 rowf	-0.0615
-3.3548 rowi	-0.0595
-99.9990 rowst	-0.0611
-99.9990 ruoojng	-0.0574
-3.3548 ruri	-0.0108
-99.9990 rust	-0.0615
-3.3548 ruwfng	-0.0615
-99.9990 ruwowjt	-0.0108
-99.9990 ruwowsc	-0.0605
-99.9990 sa	-0.0108
-99.9990 saan	-0.0615
-3.0538 saau	-0.0087
-99.9990 safi	-0.0615
-99.9990 safn	-0.0108
-3.3548 safng	-0.0613
-3.3548 safnh	-0.0615
-99.9990 safo	-0.0615
-3.3548 sai	-0.0105
-3.3548 sajn	-0.2112
-99.9990 sang	-0.0610
-2.7016 sao	-0.0389
-3.0538 sarn	-0.0086
-99.9990 sary	-0.0615
-99.9990 sasc	-0.0566
-99.9990 sasch	-0.0615
-3.1787 sasng	-0.0584
-99.9990 sasnh	-0.0604
-99.9990 sast	-0.0613
-2.4254 sau	-0.0250
-99.9990 sawn	-0.0603
-99.9990 sawsp	-0.0615
-99.9990 sawxn	-0.0613
-99.9990 say	-0.0560
-99.9990 seen	-0.0613
-99.9990 seex	-0.0609
-99.9990 sesc	-0.0588
-99.9990 sest	-0.0598
-2.5419 sex	-0.1619
-99.9990 sieest	-0.0612
-99.9990 sif	-0.0613
-3.1787 sinh	-0.0104
-3.1787 six	-0.0610
-99.9990 so	-0.0615
-3.3548 soong	-0.0612
-3.1787 soos	-0.0582
-2.9568 soosng	-0.0732
-99.9990 sosc	-0.0609
-99.9990 sow	-0.0108
-99.9990 sowj	-0.0595
-99.9990 sowji	-0.0615
-3.1787 sown	-0.0585
-3.3548 sowr	-0.0599
-3.3548 sowsm	-0.0603
-3.3548 su	-0.0046
-99.9990 sujc	-0.0611
-99.9990 sung	-0.0615
-99.9990 suoosi	-0.0596
-99.9990 suoost	-0.0604
-99.9990 sust	-0.0612
-99.9990 suw	-0.0610
-2.7016 suwj	-0.0570
-99.9990 suwowfn	-0.0613
-99.9990 suwowri	-0.0613
-99.9990 suwr	-0.0612
-99.9990 suwsc	-0.0588
-99.9990 suwxa	-0.0615
-99.9990 syx	-0.0615
-2.7016 ta	-0.0848
-99.9990 taajn	-0.0610
-2.9568 taajp	-0.0771
-3.0538 taam	-0.0608
-2.9568 taasm	-0.0607
-3.1787 taast	-0.1494
-3.3548 taay	-0.0588
-3.0538 tafi	-0.0601
-99.9990 tafn	-0.0615
-3.1787 tafu	-0.0581
-3.1787 tai	-0.1841
-99.9990 taj	-0.0108
-3.1787 taji	-0.0606
-99.9990 tajo	-0.0588
-99.9990 tajp	-0.0611
-99.9990 tao	-0.0599
-3.0538 tasc	-0.0595
-3.3548 tasn	-0.0108
-3.0538 tawng	-0.0077
-99.9990 tawsc	-0.0615
-99.9990 tawsm	-0.0610
-2.6558 tay	-0.0616
-99.9990 teej	-0.0610
-99.9990 teejp	-0.0606
-3.1787 teen	-0.0567
-3.1787 tees	-0.0060
-3.1787 teest	-0.0099
-99.9990 tejp	-0.0613
-99.9990 tesm	-0.0566
-3.0538 thaafn	-0.0095
-99.9990 thaafu	-0.0593
-99.9990 thaajm	-0.0611
-2.9568 thaajt	-0.0585
-99.9990 thaam	-0.0615
-3.3548 thaan	-0.0108
-99.9990 thaast	-0.0609
-2.4254 thaasy	-0.0141
-2.5419 thafnh	-0.0468
-99.9990 than	-0.0605
-3.1787 thanh	-0.0108
-99.9990 thao	-0.0610
-99.9990 thar	-0.0587
-99.9990 thasm	-0.0610
-99.9990 thasnh	-0.0615
-99.9990 thasp	-0.0108
-3.0538 thawfng	-0.0589
-3.3548 thawrng	-0.0592
-99.9990 thawsng	-0.0615
-99.9990 thawst	-0.0612
-3.3548 thay	-0.2614
-99.9990 theefm	-0.0600
-3.1787 theem	-0.0574
-2.3134 theer	0.0085
-2.6144 thees	0.0026
-2.9568 theo	-0.0607
-3.1787 thi	-0.1842
-3.3548 thieejt	-0.2112
-99.9990 thieeju	-0.0593
-3.3548 thieen	-0.0607
-3.1787 thieest	-0.0103
-2.9568 thieesu	-0.0599
-2.8107 thif	-0.0576
-99.9990 thifa	-0.0615
-2.7527 thij	-0.0897
-99.9990 thijt	-0.0615
-99.9990 thirnh	-0.0615
-99.9990 this	-0.0612
-3.1787 thisch	-0.1808
-99.9990 thoarng	-0.0611
-99.9990 thoasng	-0.0609
-99.9990 thojc	-0.0615
-99.9990 thojt	-0.0574
-2.9568 thooi	-0.0775
-2.9568 thoong	-0.0608
-99.9990 thoori	-0.0613
-99.9990 thoosng	-0.0108
-99.9990 thosc	-0.0609
-3.3548 thow	-0.0102
-99.9990 thowf	-0.0574
-2.8107 thowfi	-0.0567
-99.9990 thowj	-0.0615
-99.9990 thowst	-0.0108
-99.9990 thua	-0.0108
-99.9990 thuaaxn	-0.0611
-3.1787 thuee	-0.0539
-99.9990 thuf	-0.0108
-3.3548 thuoojc	-0.0611
-3.3548 thuoosc	-0.0613
-3.3548 thur	-0.0611
-99.9990 thus	-0.0610
-3.1787 thusc	-0.0596
-99.9990 thuw	-0.0613
-99.9990 thuwa	-0.0615
-99.9990 thuwfa	-0.0609
-2.9568 thuwjc	-0.0578
-2.7527 thuwowfng	-0.0991
-99.9990 thuwowjng	-0.0613
-3.3548 thuwowng	-0.0098
-99.9990 thuwowrng	-0.0560
-99.9990 thuwowsc	-0.0108
-99.9990 thuwowxn	-0.0610
-3.0538 thuwr	-0.0057
-2.8107 thuws	-0.0535
-3.0538 thuwsc	-0.0566
-3.3548 thuyeefn	-0.0612
-99.9990 thuyeen	-0.0615
-99.9990 thuyeest	-0.0615
-2.8107 tieefn	0.0016
-3.3548 tieen	-0.0562
-99.9990 tieesn	-0.0615
-2.9568 tieesng	-0.0592
-3.1787 tieesp	-0.1333
-3.3548 tieest	-0.0595
-3.0538 tieeu	-0.0588
-3.0538 tifm	-0.0579
-2.7527 tifnh	-0.0016
-99.9990 tij	-0.0615
-2.7016 tin	-0.0408
-99.9990 tinh	-0.0611
-99.9990 tirnh	-0.0599
-99.9990 tis	-0.0613
-99.9990 tisa	-0.0595
-99.9990 tism	-0.0613
-99.9990 tisn	-0.0574
-2.7527 tisnh	-0.0491
-99.9990 tixnh	-0.0608
-99.9990 toa	-0.0612
-3.3548 toafn	-0.0105
-99.9990 toajc	-0.0108
-99.9990 toan	-0.0607
-99.9990 toanh	-0.0602
-99.9990 toasn	-0.0594
-99.9990 too	-0.0588
-2.0876 tooi	-0.0374
-99.9990 toojc	-0.0599
-99.9990 toon	-0.0615
-99.9990 toor	-0.0613
-99.9990 toorng	-0.0615
-3.3548 toosc	-0.0610
-3.1787 toosi	-0.0601
-2.7527 toost	-0.0731
-99.9990 tor	-0.0588
-3.0538 tosc	-0.0606
-3.0538 towsi	-0.0577
-99.9990 tra	-0.0574
-3.1787 traafm	-0.0613
-3.1787 traajn	-0.1840
-99.9990 traam	-0.0602
-99.9990 traan	-0.0613
-99.9990 traasn	-0.0615
-99.9990 traf	-0.0615
-3.3548 trafng	-0.0613
-99.9990 trafnh	-0.0602
-99.9990 trai	-0.0596
-99.9990 traji	-0.0615
-3.1787 trajng	-0.0589
-3.3548 trang	-0.0586
-3.1787 tranh	-0.0104
-99.9990 trao	-0.0615
-3.3548 trar	-0.0608
-99.9990 trari	-0.0606
-99.9990 traro	-0.0615
-3.3548 trasch	-0.2616
-99.9990 trasi	-0.0612
-99.9990 trasn	-0.0611
-3.3548 trasng	-0.0108
-3.3548 trasnh	-0.0547
-99.9990 trawm	-0.0615
-99.9990 trawng	-0.0108
-99.9990 trawsc	-0.0612
-99.9990 trawsng	-0.0606
-99.9990 tre	-0.0615
-2.3771 treen	-0.0734
-2.9568 trer	-0.0568
-99.9990 trieeju	-0.0611
-2.9568 trieern	-0.0046
-3.1787 trifnh	-0.0605
-3.1787 trij	-0.0566
-99.9990 trijnh	-0.0597
-99.9990 tris	-0.0108
-99.9990 trof	-0.0108
-99.9990 trofn	-0.0596
-99.9990 trofng	-0.0615
-3.3548 trojng	-0.0090
-2.2579 trong	-0.0578
-99.9990 troof	-0.0613
-3.1787 troong	-0.0578
-2.8777 troosng	-0.1334
-99.9990 trowfi	-0.0608
-99.9990 trowj	-0.0611
-2.8777 trowr	-0.1791
-99.9990 trowsn	-0.0596
-99.9990 trujy	-0.0560
-2.9568 trung	-0.1297
-3.3548 trusng	-0.0599
-3.3548 truwng	-0.0610
-2.7016 truwowfng	-0.0395
-99.9990 truwowng	-0.0615
-2.8777 truwowsc	-0.0027
-3.1787 truyeefn	-0.0611
-99.9990 tua	-0.0615
-2.9568 tuaafn	-0.1223
-99.9990 tuaasn	-0.0572
-99.9990 tuf	-0.0600
-99.9990 tufng	-0.0602
-99.9990 tufy	-0.0108
-3.3548 tui	-0.0601
-3.1787 tujc	-0.0604
-99.9990 tuji	-0.0595
-3.3548 tung	-0.0582
-3.3548 tus	-0.0583
-99.9990 tusi	-0.0612
-99.9990 tusy	-0.0108
-2.9568 tuw	-0.1287
-2.6144 tuwf	-0.0741
-2.7016 tuwj	-0.0872
-99.9990 tuwowfm	-0.0615
-3.0538 tuwowjng	-0.0091
-99.9990 tuwowjp	-0.0108
-99.9990 tuwowng	-0.0615
-3.1787 tuwowrng	-0.0558
-2.9568 tuwr	-0.0598
-3.1787 tuy	-0.0591
-99.9990 tuyeefn	-0.0585
-99.9990 tuyeejt	-0.0615
-3.3548 tuyeern	-0.0610
-3.3548 ty	-0.0609
-99.9990 uoosn	-0.0613
-99.9990 uoosng	-0.0108
-99.9990 ur	-0.0615
-3.3548 uwowng	-0.0613
-99.9990 uwowsc	-0.0613
-99.9990 uwowst	-0.0613
-99.9990 uwrng	-0.0613
-3.3548 uwsng	-0.0599
-99.9990 uwu	-0.0613
-99.9990 uy	-0.0615
-99.9990 vaajn	-0.0108
-3.0538 vaajt	-0.0579
-2.9568 vaajy	-0.1774
-99.9990 vaan	-0.0599
-99.9990 vaasn	-0.0612
-2.9568 vaaxn	-0.1233
-99.9990 vaay	-0.0108
-2.1787 vaf	-0.0475
-2.4797 vafo	-0.0859
-99.9990 vai	-0.0611
-99.9990 vajc	-0.0600
-99.9990 vajt	-0.0612
-3.3548 vang	-0.0596
-3.0538 vawn	-0.0088
-99.9990 vaxi	-0.0108
-2.4517 veef	-0.0208
-99.9990 veej	-0.0587
-99.9990 veest	-0.0613
-99.9990 vefo	-0.0598
-99.9990 ven	-0.0610
-3.3548 vex	-0.0597
-3.1787 vi	-0.0602
-2.5766 vieejc	-0.0026
-3.3548 vieejn	-0.0075
-3.3548 vieejt	-0.2617
-3.1787 vieen	-0.0086
-99.9990 vieexn	-0.0560
-2.8777 vif	-0.0513
-3.0538 vij	-0.0605
-99.9990 vinh	-0.0615
-99.9990 vira	-0.0613
-3.3548 vixnh	-0.0602
-3.1787 vofng	-0.0603
-2.8777 vojng	-0.0003
-99.9990 vojt	-0.0588
-99.9990 vong	-0.0108
-3.0538 voo	-0.0572
-99.9990 voosn	-0.0108
-3.3548 voox	-0.0605
-99.9990 vor	-0.0601
-99.9990 vos	-0.0615
-99.9990 vosc	-0.0612
-99.9990 vowfi	-0.0574
-3.0538 vowj	-0.0967
-99.9990 vowr	-0.0615
-2.2941 vowsi	-0.0360
-99.9990 vowx	-0.0615
-99.9990 vox	-0.0611
-99.9990 vufng	-0.0615
-99.9990 vui	-0.0603
-3.1787 vuj	-0.0095
-99.9990 vust	-0.0613
-2.8777 vuwfa	-0.0565
-3.3548 vuwjc	-0.0609
-99.9990 vuwowfn	-0.0612
-99.9990 vuwowjng	-0.0108
-99.9990 vuwowsng	-0.0572
-99.9990 vux	-0.0108
-3.1787 xa	-0.0070
-99.9990 xaary	-0.0600
-99.9990 xaay	-0.0612
-99.9990 xajch	-0.0108
-3.3548 xajo	-0.0052
-99.9990 xanh	-0.0615
-99.9990 xary	-0.0609
-99.9990 xawsn	-0.0593
-99.9990 xawxng	-0.0613
-3.3548 xax	-0.0608
-3.0538 xe	-0.1473
-99.9990 xeesch	-0.0574
-99.9990 xeesp	-0.0610
-3.0538 xem	-0.0560
-99.9990 xest	-0.0593
-99.9990 xia	-0.0108
-2.9568 xin	-0.0598
-99.9990 xinh	-0.0615
-99.9990 xiru	-0.0108
-3.3548 xisu	-0.0600
-99.9990 xoefn	-0.0615
-99.9990 xoejt	-0.0612
-99.9990 xom	-0.0613
-99.9990 xoosng	-0.0615
-3.3548 xosm	-0.0594
-3.3548 xuaast	-0.0603
-99.9990 xuoofng	-0.0608
-2.8777 xuoosng	-0.0100
-3.3548 xusc	-0.0102
-3.3548 xuwowng	-0.0102
-99.9990 xuwowsng	-0.0615
-3.3548 xuyeen	-0.0573
-3.3548 y	-0.0615
-99.9990 yeen	-0.0108
-99.9990 yeesu	-0.0566
-3.0538 yeeu	-0.0600
-3.0538 ys	-0.1473

\2-grams:
-0.0009 </s> <s> 0.0140
-1.6990 <s> anh -0.0120
-3.5784 <s> asn 0.0053
-3.5784 <s> aso -0.0048
-2.7419 <s> awn 0.0289
-3.5784 <s> ba -0.0179
-2.7419 <s> baast 0.0371
-2.7419 <s> baf -0.1213
-3.5784 <s> bafo 0.0053
-2.4145 <s> bajn 0.0034
-3.5784 <s> ban 0.0371
-3.5784 <s> barn -0.0147
-3.5784 <s> bawfng -0.0191
-3.5784 <s> bawst 0.0836
-3.5784 <s> beejnh -0.0171
-3.5784 <s> been 0.0053
-3.5784 <s> ben 0.0371
-3.5784 <s> bieern -0.0098
-3.5784 <s> bij -0.0191
-3.5784 <s> bojn 0.0053
-2.7544 <s> bowri 0.0209
-3.5784 <s> buoojc 0.0371
-3.5784 <s> buoori 0.0371
-3.5784 <s> buwowsc 0.0053
-3.5784 <s> buwsc 0.1318
-3.5784 <s> caafu -0.0098
-3.5784 <s> caau -0.0098
-3.5784 <s> cam 0.0053
-3.5784 <s> car 0.0027
-3.5784 <s> carm -0.0127
-2.0000 <s> casc 0.0096
-3.5784 <s> casi -0.0186
-2.7544 <s> cha 0.0885
-3.5784 <s> chary 0.0053
-2.7419 <s> chawrng -0.0008
-3.5784 <s> chesm -0.0048
-3.5784 <s> chieefu 0.1318
-2.7419 <s> chieesc -0.0077
-2.7419 <s> chieesn 0.0053
-3.5784 <s> chij -0.0098
-1.9208 <s> chir 0.0430
-1.8539 <s> cho -0.0624
-3.5784 <s> chows 0.0371
-1.7959 <s> chusng -0.1133
-3.5784 <s> chuwa 0.0053
-3.5784 <s> chuws 0.2376
-3.5784 <s> chuyeejn -0.0098
-2.7419 <s> cofn 0.0082
-2.7419 <s> coo 0.0573
-2.7544 <s> coong 0.0253
-3.5784 <s> coorng 0.0371
-3.5784 <s> coos 0.0340
-1.5229 <s> cos -0.0778
-3.5784 <s> cowm 0.0053
-3.5784 <s> cufng -0.0161
-2.7419 <s> cung 0.0053
-2.7419 <s> cura -0.0216
-2.7419 <s> cuws -0.0077
-2.4145 <s> cuxng 0.0512
-3.5784 <s> daasu 0.0053
-3.5784 <s> dasc 0.0053
-3.5784 <s> dda 0.0053
-3.5784 <s> ddaasy -0.0048
-3.5784 <s> ddaau -0.0147
-2.7544 <s> ddafn 0.0346
-3.5784 <s> ddau -0.0161
-2.7419 <s> ddax -0.0034
-3.5784 <s> ddeef -0.0048
-3.5784 <s> ddeefu -0.0048
-2.0000 <s> ddeer -0.0412
-3.5784 <s> ddi -0.0224
-2.7544 <s> ddieefu -0.0796
-3.5784 <s> ddieerm -0.0147
-3.5784 <s> ddo 0.0371
-3.5784 <s> ddoofng -0.0205
-3.5784 <s> ddooi 0.0053
-3.5784 <s> ddooji -0.0048
-3.5784 <s> ddoong -0.0098
-3.5784 <s> dduwfng -0.0048
-3.5784 <s> dduwowfng -0.0186
-2.7419 <s> dduwowjc -0.0212
-3.5784 <s> dduwsc 0.0053
-3.5784 <s> dduwsng 0.0053
-3.5784 <s> doanh 0.0053
-3.5784 <s> dofng -0.0098
-3.5784 <s> duwjng -0.0048
-3.5784 <s> duwowsi -0.0127
-3.5784 <s> em -0.0006
-3.5784 <s> gaafn 0.0872
-3.5784 <s> gaay -0.0161
-3.5784 <s> gasnh -0.0098
-3.5784 <s> gawjp -0.0171
-3.5784 <s> ghi -0.0048
-3.5784 <s> giafu 0.0371
-3.5784 <s> giarnh 0.0053
-3.5784 <s> gias -0.0048
-2.7419 <s> giowf -0.0077
-3.5784 <s> giusp 0.0053
-2.7419 <s> giuwxa -0.0008
-3.5784 <s> guwri 0.0053
-3.5784 <s> haaju 0.1318
-3.5784 <s> haasp 0.0371
-3.5784 <s> haf 0.0053
-2.7544 <s> hai -0.0084
-2.4145 <s> haxy 0.0241
-2.7419 <s> hay -0.0127
-2.7419 <s> heest -0.0077
-3.5784 <s> hi 0.0371
-2.7419 <s> hieejn -0.0147
-3.5784 <s> hieesm 0.0371
-3.5784 <s> hoawjc 0.0371
-2.7544 <s> hoj 0.0053
-3.5784 <s> hoom 0.1265
-3.5784 <s> hori -0.0098
-3.5784 <s> hun 0.0371
-3.5784 <s> huwfng 0.0371
-3.5784 <s> huyfnh 0.0371
-2.7544 <s> keest 0.0681
-3.5784 <s> ker -0.0098
-3.5784 <s> khasch 0.0467
-3.5784 <s> kheso 0.0371
-1.9208 <s> khi 0.0111
-2.7544 <s> khieesn 0.0089
-3.5784 <s> khisu 0.0371
-3.5784 <s> khoanh 0.0371
-1.8539 <s> khoong 0.0119
-3.5784 <s> khori 0.0371
-3.5784 <s> khurng 0.0371
-3.5784 <s> khusc 0.0053
-3.5784 <s> kieeru 0.0053
-3.5784 <s> kinh 0.0053
-1.6990 <s> laf 0.0005
-1.8539 <s> lafm -0.0038
-3.5784 <s> last 0.0371
-3.5784 <s> lawjn 0.0053
-3.5784 <s> lawsm -0.0127
-3.5784 <s> lee 0.0371
-3.5784 <s> leen -0.0042
-3.5784 <s> lijnh 0.0053
-3.5784 <s> linh 0.0371
-3.5784 <s> lixnh 0.0053
-3.5784 <s> lowfi -0.0048
-3.5784 <s> lufng 0.0371
-2.7419 <s> luoon -0.0127
-3.5784 <s> luwowng 0.0371
-2.7419 <s> lux 0.0371
-3.5784 <s> maasy -0.0098
-1.6990 <s> maf 0.0264
-3.5784 <s> mai -0.0048
-2.7419 <s> mang 0.0767
-3.5784 <s> mas 0.0053
-3.5784 <s> masu 0.0053
-3.5784 <s> mawjt -0.0147
-3.5784 <s> meej 0.0371
-2.7419 <s> mej -0.0098
-2.7419 <s> mifnh -0.0098
-3.5784 <s> minh -0.0127
-3.5784 <s> moji 0.0340
-3.5784 <s> mong 0.0053
-1.6576 <s> moojt -0.0018
-2.7419 <s> mooxi 0.0156
-3.5784 <s> mowfi -0.0048
-3.5784 <s> mowr 0.1318
-3.5784 <s> muoosn -0.0171
-3.5784 <s> muwowfi 0.0371
-3.5784 <s> muwowfng 0.0371
-3.5784 <s> naasu 0.0053
-3.5784 <s> nawfm -0.0127
-3.5784 <s> nawsng -0.0048
-2.7544 <s> neen 0.0009
-1.9208 <s> neesu 0.0702
-2.7419 <s> ngafy -0.0127
-2.7419 <s> ngay -0.1086
-2.7419 <s> ngheej 0.0053
-3.5784 <s> ngosn -0.0098
-2.7544 <s> ngur 0.0053
-2.7544 <s> nguwowfi -0.2038
-3.5784 <s> nhaajn -0.0147
-3.5784 <s> nhaf -0.0205
-3.5784 <s> nhieefu 0.0047
-3.5784 <s> nhifn -0.0161
-3.5784 <s> nhuw -0.0210
-1.8539 <s> nhuwng 0.0672
-1.7447 <s> nhuwxng 0.0340
-3.5784 <s> nooxi 0.0053
-2.4145 <s> nosi -0.0030
-2.7419 <s> nuwx 0.0053
-2.7419 <s> oong -0.0147
-3.5784 <s> oorng 0.0371
-3.5784 <s> oosng 0.0371
-3.5784 <s> owf 0.0371
-2.4145 <s> owr 0.0360
-3.5784 <s> phaafn -0.0098
-2.7419 <s> phari 0.0113
-3.5784 <s> phim -0.0147
-3.5784 <s> phis 0.0053
-3.5784 <s> phuwowng -0.0127
-3.5784 <s> quas -0.0191
-2.7419 <s> raast 0.0360
-3.5784 <s> ria 0.0371
-2.7544 <s> roofi -0.0119
-3.5784 <s> rowi 0.0053
-3.5784 <s> safng 0.0053
-2.7419 <s> sao -0.0114
-3.5784 <s> sasng -0.0048
-2.0000 <s> sau -0.0919
-3.5784 <s> sex 0.0453
-3.5784 <s> soong 0.0053
-3.5784 <s> sowr 0.0053
-3.5784 <s> suwxa 0.0371
-3.5784 <s> ta -0.0179
-3.5784 <s> taajp 0.0624
-3.5784 <s> tajo 0.0371
-3.5784 <s> tay 0.0169
-3.5784 <s> teen -0.0048
-3.5784 <s> teest -0.0048
-3.5784 <s> thaasy -0.0210
-3.5784 <s> thafnh -0.0199
-2.7419 <s> thawfng 0.0053
-2.7544 <s> thees -0.0084
-3.5784 <s> theo -0.0127
-2.7419 <s> thif -0.0077
-2.7419 <s> thooi -0.0008
-3.5784 <s> thur 0.0053
-3.5784 <s> thus 0.0371
-2.7544 <s> thuwowfng -0.0023
-3.5784 <s> thuwr -0.0098
-3.5784 <s> tieeu -0.0098
-2.7419 <s> tifm 0.0053
-3.5784 <s> tisa 0.0371
-3.5784 <s> tisnh -0.0171
-1.6198 <s> tooi -0.0161
-3.5784 <s> toor 0.0371
-3.5784 <s> toosi -0.0048
-2.7419 <s> toost 0.0344
-3.5784 <s> towsi -0.0098
-2.7419 <s> treen 0.0000
-2.0000 <s> trong 0.0013
-3.5784 <s> troong -0.0048
-2.7419 <s> truwowfng -0.0114
-3.5784 <s> tuaafn -0.0127
-3.5784 <s> tui 0.0053
-3.5784 <s> tuji 0.0371
-3.5784 <s> tusi 0.0371
-2.7419 <s> tuwf -0.0138
-2.7419 <s> tuy 0.0156
-3.5784 <s> uy 0.0371
-1.5528 <s> vaf 0.0033
-3.5784 <s> vajt 0.0371
-3.5784 <s> veef -0.0208
-2.4145 <s> vieejc -0.0048
-3.5784 <s> vif -0.0147
-2.0000 <s> vowsi -0.0718
-3.5784 <s> vox 0.0371
-3.5784 <s> vuj -0.0048
-2.7419 <s> vuwfa -0.0048
-3.5784 <s> xary 0.0371
-2.7544 <s> xin 0.0115
-3.5784 <s> xuwowng 0.0053
-3.5784 <s> yeeu -0.0098
-1.1805 aam duwowng 0.0053
-1.1805 aam ra -0.0223
-0.8795 aarn mifnh -0.0171
-1.1805 aasm cura -0.0152
-1.1805 aasm gia -0.0127
-1.3566 aasn cofi 0.0371
-0.5201 aasn tuwowjng 0.0053
-1.7246 aasy </s> 2.6746
-1.7246 aasy ddax -0.0066
-1.7246 aasy ddojc 0.0371
-1.7246 aasy gaasp 0.2376
-1.7246 aasy nosi -0.0191
-1.7246 aasy owr -0.0208
-1.7246 aasy yeen 0.0371
-0.3440 af </s> 2.5193
-0.8795 afo </s> 2.6746
-1.4815 ai </s> 2.6746
-1.4815 ai bieest -0.0186
-1.4815 ai laf -0.0232
-1.4815 ai lafm -0.0215
-1.1805 an phuwowfng 0.0371
-1.1805 an toafn 0.0053
-1.5343 anh </s> 2.5193
-2.3708 anh aasy -0.0161
-2.3708 anh bij -0.0191
-2.3708 anh caafn -0.0147
-2.3708 anh cos -0.0235
-2.3708 anh cua 0.0371
-1.5468 anh ddang -0.0127
-1.5468 anh ddax -0.0165
-2.3708 anh ddi -0.0224
-2.3708 anh duxng 0.0371
-2.3708 anh giaf 0.0053
-2.3708 anh khen 0.0371
-2.3708 anh lys -0.0098
-2.3708 anh nhaan -0.0147
-2.3708 anh nhes 0.0371
-2.3708 anh nhieejm -0.0048
-2.3708 anh nhows -0.0098
-2.3708 anh nuwxa 0.9299
-2.3708 anh own 0.0371
-2.3708 anh phari -0.0219
-2.3708 anh rawfng 0.0836
-2.3708 anh sex 0.0070
-2.3708 anh sinh -0.0048
-2.3708 anh thaasy -0.0210
-2.3708 anh tuaasn 0.0371
-2.3708 anh vafo 0.0027
-0.8795 arnh ddeer -0.0220
-0.8795 as </s> 2.6746
-0.8795 asc tisnh 0.0278
-1.1805 asn majng 0.0371
-1.1805 asn theer -0.0217
-0.8795 asnh trawng 0.0371
-1.3566 aso mowsi -0.0195
-1.3566 aso seex 0.0371
-1.3566 aso xoosng 0.0371
-1.8337 awn </s> 2.6746
-0.9972 awn cawsp 0.0371
-1.8337 awn chef 0.0371
-1.8337 awn nafo 0.0169
-1.8337 awn ngon -0.0098
-1.8337 awn nhoe 0.0371
-1.8337 awn owr -0.0208
-1.8337 awn uoosng 0.0371
-1.8337 ba caay -0.0048
-1.8337 ba chujc 0.0371
-1.8337 ba cojc -0.0048
-1.8337 ba coong -0.0019
-1.8337 ba cos -0.0235
-1.8337 ba ddoofng -0.0205
-1.8337 ba muwowi 0.0371
-1.8337 ba nafy -0.0220
-1.8337 ba so 0.0371
-0.8795 baafy ddafn -0.0147
-1.1805 baast cuws -0.0161
-1.1805 baast ddoofng -0.0205
-0.8795 baaxy phas -0.0098
-0.8795 baay giowf -0.0161
-1.7246 baf chir -0.0019
-0.9005 baf con -0.0161
-1.7246 baf giori -0.0048
-1.7246 baf laf -0.0232
-1.7246 baf toafn 0.0053
-0.8881 bafn </s> 2.5193
-1.7246 bafn chaan -0.0098
-1.7246 bafn hojc -0.0171
-0.8881 bafn tay 0.0624
-1.7246 bafn thowf 0.0371
-1.1805 bafo chees 0.0053
-1.1805 bafo naxo 0.0371
-1.1805 bafy chusng -0.0212
-1.1805 bafy ra -0.0223
-0.8795 bajch lieeu 0.0371
-1.3652 bajn </s> 2.5193
-2.2017 bajn cafng 0.0624
-2.2017 bajn chowi -0.0127
-2.2017 bajn coos 0.0340
-2.2017 bajn cos 0.0876
-1.3652 bajn ddawjt -0.1108
-2.2017 bajn ddax -0.0066
-2.2017 bajn giux 0.0371
-2.2017 bajn haxy -0.0127
-2.2017 bajn khoong -0.0177
-2.2017 bajn luoon -0.0186
-2.2017 bajn mowsi -0.0195
-2.2017 bajn nuwxa 0.9299
-2.2017 bajn phari -0.0219
-2.2017 bajn quys 0.0053
-2.2017 bajn sang 0.0371
-2.2017 bajn sex -0.0199
-2.2017 bajn trowr 0.0467
-2.2017 bajn truwowfng -0.0179
-0.8795 ban tafi -0.0098
-0.8795 banh </s> 2.6746
-1.6576 bao cao 0.0358
-0.4937 bao giowf 0.0097
-1.6576 bao vaay 0.0371
-1.6576 barn asn 0.0053
-1.6576 barn chaast -0.0048
-1.6576 barn chusng -0.0026
-1.6576 barn quyeefn 0.0053
-1.6576 barn thaan 0.0053
-1.6576 barn tin -0.0179
-0.8795 barnh trai 0.0371
-1.4815 baro </s> 2.6746
-1.4815 baro kejt 0.0371
-1.4815 baro nhajc -0.0098
-1.4815 baro veej 0.0371
-0.8795 bary laafn -0.0161
-0.8795 bas vawn -0.0098
-1.3566 basn bao -0.0147
-1.3566 basn chui 0.0371
-1.3566 basn chusng -0.0212
-1.3566 baso </s> 2.6746
-1.3566 baso caso 0.0053
-1.3566 baso looxi -0.0048
-1.9209 bawfng </s> 2.6746
-1.9209 bawfng anh -0.0115
-1.9209 bawfng casch -0.0147
-1.0844 bawfng chieesc -0.0077
-1.9209 bawfng ddoofng -0.0205
-1.9209 bawfng las -0.0048
-1.9209 bawfng mojt 0.0371
-1.9209 bawfng nhuwxng -0.0157
-1.9209 bawfng nooxi 0.0053
-1.9209 bawfng toon 0.0371
-0.8795 bawng chesm -0.0048
-0.8795 bawsc myx 0.2376
-0.6575 bawst ddaafu -0.0098
-1.4815 bawst masy -0.0127
-0.8795 baxi hoa 0.0371
-0.8795 bay leen 0.1627
-0.8795 beef ngoafi -0.0127
-1.7826 beejnh </s> 2.6746
-1.7826 beejnh asc 0.0371
-1.7826 beejnh carnh -0.0161
-1.7826 beejnh chowr 0.0371
-1.7826 beejnh laaju 0.0371
-1.7826 beejnh nafy -0.0220
-1.7826 beejnh owr -0.0208
-1.7826 beejnh vieejn 0.0053
-0.8795 beejt car -0.0205
-1.1805 been duwowsi -0.0127
-1.1805 been ngoafi -0.0127
-0.8795 bef tuwf -0.0191
-0.8795 befo </s> 2.6746
-0.8795 ben thaasy -0.0210
-1.4815 bes muf 0.0053
-1.4815 bes oofng 0.0371
-1.4815 bes thow 0.0053
-1.4815 bes tosc -0.0098
-0.8795 bieefn naang -0.0098
-1.1805 bieejt </s> 2.6746
-1.1805 bieejt danh 0.0371
-0.8795 bieen phofng -0.0127
-0.6450 bieern </s> 2.5193
-1.4815 bieern dufng 0.0053
-1.4815 bieern hieejn -0.0195
-1.3566 bieeru duwowng 0.0053
-1.3566 bieeru hieejn -0.0195
-1.3566 bieeru vowj -0.0098
-1.4815 bieesn </s> 2.6746
-1.4815 bieesn chuwsng 0.0872
-1.4815 bieesn ddoori -0.0127
-1.4815 bieesn vuj -0.0048
-1.0554 bieest </s> 2.4775
-1.8795 bieest baf -0.0161
-1.0554 bieest dduwowjc 0.0973
-1.8795 bieest duwowfng 0.2376
-1.8795 bieest owr -0.0208
-1.8795 bieest tuwj -0.0179
-0.8795 bifa ddejp 0.0872
-1.9209 bij bao -0.0147
-1.9209 bij beejnh -0.0171
-1.9209 bij cha 0.0597
-1.9209 bij chaam 0.0371
-1.9209 bij chaf 0.0371
-1.9209 bij mosp 0.0371
-1.9209 bij nhuwxng -0.0231
-1.9209 bij tai 0.1318
-1.9209 bij thuwowng 0.0053
-1.9209 bij trusng 0.0053
-1.9209 bij vuwowsng 0.0371
-0.8795 boj ngon -0.0098
-1.1805 bojn nhosc 0.0371
-1.1805 bojn pharn -0.0048
-0.8795 boofi thuwowfng -0.0171
-1.3566 booj ba -0.0179
-1.3566 booj dows 0.0371
-1.3566 booj trifnh -0.0048
-0.8795 boojt dafnh 0.1318
-1.1805 boorng luyeesn 0.0371
-1.1805 boorng xuoosng -0.0147
-1.1805 boos </s> 2.6746
-1.1805 boos khoong -0.0234
-1.1805 boosc leen 0.1627
-1.1805 boosc phest 0.0371
-0.8795 boosi carnh -0.0161
-0.8795 boosn ngafy 0.0169
-1.6576 bor hoang 0.0371
-1.6576 bor laji -0.0208
-1.6576 bor moji -0.0161
-1.6576 bor nhaf -0.0205
-1.6576 bor qua -0.0179
-1.6576 bor troosng 0.0467
-0.8795 bow phowf 0.0371
-0.8795 bowi thuyeefn 0.0053
-1.4815 bowri chusng -0.0212
-1.4815 bowri ddos -0.0006
-1.4815 bowri du 0.0371
-1.4815 bowri vif -0.0147
-0.8795 bufi nhufi 0.0371
-0.8795 buji ddowfi -0.0127
-0.8795 bujng quas 0.0130
-0.5201 buoofn </s> 2.5193
-1.3566 buoofn cuwowfi -0.0048
-0.8795 buoojc anh -0.0225
-0.8795 buoong tieesng -0.0127
-0.8795 buoori chieefu -0.0048
-0.8795 busn dduwowjc -0.0228
-0.8795 bust kys 0.0371
-1.1805 buwowsc khoong -0.0234
-1.1805 buwowsc vafo -0.0205
-0.5201 buwsc tranh 0.0156
-1.3566 buwsc xusc 0.0053
-1.1805 ca ngheeu 0.0371
-1.1805 ca six -0.0048
-1.3566 caafm dduoosc 0.0371
-1.3566 caafm howi 0.0371
-1.3566 caafm moojt -0.0230
-1.6576 caafn dduwowjc -0.0228
-1.6576 caafn gawjp -0.0171
-1.6576 caafn moojt -0.0230
-1.6576 caafn thieest -0.0048
-1.6576 caafn thow 0.0053
-1.6576 caafn thur 0.0053
-1.4815 caafu daafu 0.0371
-1.4815 caafu mong 0.0053
-1.4815 caafu rieeng -0.0048
-1.4815 caafu tawng -0.0098
-0.8795 caajt luwjc -0.0098
-0.8795 caaju bes -0.0098
-0.8795 caajy quyeefn 0.0053
-1.3566 caasp </s> 2.6746
-1.3566 caasp cho -0.0225
-1.3566 caasp nhuwxng -0.0231
-0.8795 caasy toosi -0.0048
-1.4815 caau chuyeejn -0.0098
-1.4815 caau ddax -0.0217
-1.4815 caau gif -0.0171
-1.4815 caau hori -0.0098
-1.3566 caay </s> 2.6746
-1.3566 caay phisa 0.0053
-1.3566 caay soos -0.0048
-1.1805 caf ddaau -0.0147
-1.1805 caf thojt 0.0371
-0.7419 cafng nhieefu -0.0161
-0.7419 cafng toost -0.1290
-1.5784 cafng trowr 0.0467
-0.8795 cafu caju 0.0371
-0.8795 cajm baaxy 0.0371
-0.8795 cajn </s> 2.6746
-0.8795 caju </s> 2.6746
-1.1805 cam keest -0.0186
-1.1805 cam safnh 0.0053
-1.7246 cao </s> 2.6746
-1.7246 cao caasp -0.0048
-1.7246 cao chaast -0.0048
-1.7246 cao khi -0.0215
-1.7246 cao neesu -0.0171
-0.8881 cao su 0.0371
-2.0556 car </s> 2.6746
-1.2191 car casc -0.0089
-2.0556 car duwowsi -0.0127
-2.0556 car hai -0.0191
-2.0556 car moji 0.0340
-1.2191 car moojt -0.0217
-2.0556 car neefn 0.0371
-2.0556 car ngafy 0.0169
-2.0556 car nhaf -0.0205
-2.0556 car ra -0.0223
-2.0556 car thuoojc 0.0053
-2.0556 car tranh -0.0048
-2.0556 car truwowsc -0.0147
-1.5784 carm </s> 2.6746
-1.5784 carm bieesn -0.0098
-1.5784 carm thaasy -0.0210
-1.5784 carm thoong -0.0127
-1.5784 carm vowsi -0.0219
-0.8795 carng cas -0.0048
-1.7246 carnh baso -0.0048
-1.7246 carnh cos 0.0876
-1.7246 carnh ddaafu -0.0195
-1.7246 carnh ddifu 0.0371
-1.7246 carnh nosng 0.0371
-1.7246 carnh pharn -0.0048
-1.7246 carnh phim 0.0467
-1.3566 cas ddawfng 0.0371
-1.3566 cas hoof -0.0127
-1.3566 cas lys -0.0098
-2.3419 casc anh -0.0225
-2.3419 casc baafy 0.0371
-2.3419 casc bafn -0.0161
-2.3419 casc bajn -0.0216
-2.3419 casc bieesn -0.0098
-2.3419 casc chasu 0.0053
-2.3419 casc chuaarn -0.0098
-2.3419 casc chuyeen -0.0098
-2.3419 casc con -0.0216
-2.3419 casc coo -0.0195
-2.3419 casc coong -0.0212
-1.5178 casc em -0.0141
-2.3419 casc hoof -0.0127
-2.3419 casc huxm 0.0371
-2.3419 casc loa 0.0371
-2.3419 casc nest 0.0371
-2.3419 casc ngafi 0.0053
-2.3419 casc ngosn 0.0836
-1.5054 casc nhaf -0.0166
-2.3419 casc pha 0.0053
-2.3419 casc phosng -0.0098
-2.3419 casc quoosc 0.0624
-2.3419 casc teejp 0.0371
-2.3419 casc tees -0.0048
-2.3419 casc trieeju 0.0371
-2.3419 casc yeeu -0.0098
-1.6576 casch chowi -0.0127
-1.6576 casch laajt -0.0048
-1.6576 casch luoon -0.0186
-1.6576 casch ra -0.0223
-1.6576 casch toost 0.0263
-1.6576 casch tuwj 0.0203
-1.8795 casi cajm 0.0371
-1.8795 casi ddofn 0.0371
-1.8795 casi dixa 0.0371
-1.8795 casi gif -0.0171
-1.8795 casi giojng 0.0053
-1.8795 casi mosn 0.0371
-1.8795 casi nafo 0.0169
-1.8795 casi oong -0.0195
-1.8795 casi teen -0.0048
-1.8795 casi toorng 0.0371
-1.3566 casnh cuwra 0.0053
-1.3566 casnh ddoofng -0.0205
-1.3566 casnh tay -0.0186
-1.1805 caso nhuw -0.0210
-1.1805 caso treen -0.0213
-0.8795 cawn beejnh -0.0171
-0.8795 cawng </s> 2.6746
-1.1805 cawsp barn -0.0147
-1.1805 cawsp phooxng 0.0371
-0.8795 cawst </s> 2.6746
-1.5784 cha cura -0.0230
-0.7544 cha mej -0.0023
-1.5784 cha nos 0.0169
-0.8795 chaafm chaajm 0.0053
-1.1805 chaajm lafnh 0.2376
-1.1805 chaajm treen -0.0038
-0.8795 chaajt </s> 2.6746
-0.8795 chaaju </s> 2.6746
-0.8795 chaam luwra 0.0053
-1.4815 chaan caf 0.0053
-1.4815 chaan chisnh -0.0127
-1.4815 chaan meefm 0.0053
-1.4815 chaan tis 0.0371
-1.3566 chaast ddaafy -0.0098
-1.3566 chaast luwowjng -0.0048
-1.3566 chaast tuwj 0.0203
-0.8795 chaau as 0.0371
-0.8795 chaf ddajp 0.0371
-1.1805 chafo ngafy -0.0186
-1.1805 chafo nhau -0.0048
-1.3566 chajy phajt 0.0371
-0.5201 chajy xe 0.1061
-0.8795 chang thasm 0.0371
-0.8795 char barnh 0.0371
-1.1805 chary nhaxo 0.0371
-1.1805 chary thawrng 0.0053
-1.1805 chasu </s> 2.6746
-1.1805 chasu nooji -0.0048
-1.1805 chawjn </s> 2.6746
-1.1805 chawjn ddaafu -0.0195
-1.1805 chawjt </s> 2.6746
-1.1805 chawjt vafo -0.0205
-1.1805 chawm chawsm 0.0371
-1.1805 chawm sosc 0.0371
-1.5784 chawrng ai -0.0098
-1.5784 chawrng cos -0.0235
-1.5784 chawrng ddaau -0.0147
-1.5784 chawrng laf -0.0232
-1.5784 chawrng thaasy -0.0210
-0.8795 chawsc cos -0.0235
-0.8795 chawsm vafo -0.0205
-0.8795 chaxo </s> 2.6746
-0.8795 che bawfng 0.0130
-0.8795 chee anh -0.0225
-0.8795 cheenh treen -0.0213
-1.1805 chees dduwowjc 0.0815
-1.1805 chees nhuwxng -0.0231
-0.8795 cheest cufng -0.0161
-0.8795 chef ngay -0.0147
-0.8795 chefn esp 0.0053
-0.8795 chen nhau -0.0048
-1.3566 chesm gios -0.0127
-1.3566 chesm muwowsn 0.0371
-1.3566 chesm quaajy 0.0371
-0.3440 chesn </s> 2.5193
-1.1805 chi phis 0.0053
-1.1805 chi tieest 0.0053
-0.8795 chia buoofn 0.1318
-1.3566 chieefu </s> 2.6746
-0.5201 chieefu nay -0.0077
-1.7246 chieesc aso -0.0048
-1.7246 chieesc ghe 0.0371
-1.7246 chieesc loong 0.0371
-1.7246 chieesc oor 0.0371
-1.7246 chieesc thuwowsc 0.0371
-1.7246 chieesc thuyeefn 0.0053
-1.7246 chieesc vos 0.0371
-1.4815 chieesn dijch 0.0371
-1.4815 chieesn khu 0.0053
-1.4815 chieesn six -0.0048
-1.4815 chieesn thawsng 0.0371
-0.8795 chieest nhau -0.0048
-0.8795 chieesu </s> 2.6746
-0.8795 chif chieest 0.0371
-1.4815 chij ddaay -0.0186
-1.4815 chij ta -0.0179
-1.4815 chij thanh -0.0048
-1.4815 chij truwowng 0.0371
-0.8795 chim trao 0.0371
-2.1348 chir bawfng -0.0191
-1.2982 chir caafn -0.0048
-2.1348 chir caasy 0.0371
-2.1348 chir chawm 0.0053
-2.1348 chir che 0.0371
-2.1348 chir cofn 0.0038
-0.9708 chir cos -0.0157
-2.1348 chir giori -0.0048
-2.1348 chir hoafn 0.0053
-2.1348 chir keest 0.0157
-2.1348 chir muoosn -0.0171
-2.1348 chir nhaajn -0.0147
-2.1348 chir thaasy -0.0210
-2.1348 chir thoasng 0.0371
-0.8795 chirnh hoof -0.0127
-1.4815 chis cos 0.0876
-1.4815 chis ddax -0.0217
-1.4815 chis khoa 0.1868
-1.4815 chis minh -0.0127
-0.8795 chisn mieejng 0.0371
-1.5784 chisnh </s> 2.6746
-1.5784 chisnh casi -0.0186
-1.5784 chisnh phur 0.0371
-1.5784 chisnh quarn 0.0053
-1.5784 chisnh thuwsc -0.0098
-2.3708 cho bajn -0.0052
-2.3708 cho bieest 0.0157
-2.3708 cho boos 0.0053
-2.3708 cho cha 0.0597
-2.3708 cho chos 0.0371
-2.3708 cho chusng 0.1517
-2.3708 cho cor 0.0053
-2.3708 cho daan 0.0340
-2.3708 cho ddeesn -0.0208
-2.3708 cho duyeen 0.0371
-1.5343 cho em 0.0023
-2.3708 cho ist 0.0371
-2.3708 cho moji 0.0358
-2.3708 cho moojt -0.0153
-2.3708 cho ngafnh 0.0371
-2.3708 cho phesp 0.0053
-2.3708 cho ra -0.0223
-2.3708 cho rawfng 0.0836
-2.3708 cho sown -0.0048
-2.3708 cho thaasy -0.0006
-2.3708 cho this 0.0371
-1.5343 cho thuee 0.0156
-1.2069 cho tooi -0.0181
-1.5343 cho trer -0.0008
-2.3708 cho vieejc -0.0195
-1.3566 chojn hafo 0.0053
-1.3566 chojn khasch 0.0467
-1.3566 chojn thees -0.0191
-0.8795 chong chosng 0.0371
-0.8795 choong cheenh 0.0371
-0.8795 choosn coong -0.0212
-1.1805 choosng laji -0.0208
-1.1805 choosng najn -0.0048
-0.8795 choox quaafn 0.0371
-0.8795 chos awn -0.0179
-0.8795 chosng gios -0.0127
-1.5784 chowi cura -0.0230
-1.5784 chowi ddas -0.0048
-1.5784 chowi howjp -0.0147
-1.5784 chowi nuwra 0.0624
-1.5784 chowi tieesp -0.0048
-0.8795 chowr ddi -0.0224
-0.8795 chows khoong -0.0175
-0.8795 chua </s> 2.6746
-1.4815 chuaarn bij -0.0191
-1.4815 chuaarn cho -0.0225
-1.4815 chuaarn muwjc 0.0371
-1.4815 chuaarn quoosc -0.0127
-0.8795 chufa </s> 2.6746
-0.8795 chufi raast -0.0171
-0.8795 chui vaf -0.0224
-0.8795 chujc ngafn 0.0371
-0.8795 chum </s> 2.6746
-1.4815 chung </s> 2.6746
-0.6450 chung keest -0.1384
-1.4815 chung vowsi -0.0219
-0.8795 chuoojt </s> 2.6746
-0.8795 chuoong reo 0.0371
-0.8795 chuoosi </s> 2.6746
-1.1805 chur quasn 0.0053
-1.1805 chur yeesu 0.0371
-1.1805 chus laf -0.0232
-1.1805 chus trojng 0.0053
-2.1348 chusng </s> 2.6746
-2.1348 chusng cam 0.0053
-2.1348 chusng ddax -0.0066
-2.1348 chusng hay -0.0186
-2.1348 chusng luoon -0.0186
-2.1348 chusng nuwxa 0.9299
-1.3107 chusng ta -0.0683
-2.1348 chusng tieesp 0.1318
-0.4771 chusng tooi -0.0534
-2.1348 chusng tuwowrng -0.0048
-2.1348 chusng xaary 0.0371
-1.1805 chuwa dduwowjc -0.0228
-1.1805 chuwa kijp 0.0053
-0.8795 chuwowng trifnh -0.0048
-0.3440 chuws khoong -0.0087
-1.1805 chuwsc hoajt 0.0053
-1.1805 chuwsc nawng -0.0098
-0.6450 chuwsng </s> 2.5193
-1.4815 chuwsng khoasn 0.0371
-1.4815 chuwsng minh -0.0127
-1.1805 chuwx </s> 2.6746
-1.1805 chuwx marnh 0.0053
-0.8795 chuwxa nghieejn 0.0371
-1.4815 chuyeejn </s> 2.6746
-1.4815 chuyeejn chefn 0.0371
-1.4815 chuyeejn ddos -0.0210
-1.4815 chuyeejn veef -0.0208
-1.4815 chuyeen bajch 0.0371
-1.4815 chuyeen gia -0.0127
-1.4815 chuyeen nghieejp -0.0098
-1.4815 chuyeen veef -0.0208
-1.1805 chuyeern giao 0.0053
-1.1805 chuyeern mafu -0.0048
-0.8795 chuyeesn rowf 0.0371
-0.8795 cof </s> 2.6746
-0.8795 cofi carnh -0.0161
-0.8795 cofm coxi 0.0371
-2.0256 cofn cafu 0.0371
-2.0256 cofn chua 0.0371
-1.2016 cofn cos -0.0217
-2.0256 cofn daajy 0.0371
-2.0256 cofn ddang -0.0205
-1.1891 cofn dduwowjc -0.0212
-2.0256 cofn deex 0.0053
-2.0256 cofn laf -0.0232
-1.1891 cofn nhor -0.0048
-2.0256 cofn vex 0.0053
-0.8795 cofng cura -0.0152
-1.1805 coi phim -0.0147
-1.1805 coi thuwr -0.0098
-1.3566 cojc ba -0.0179
-1.3566 cojc tieefn -0.0161
-1.3566 cojc tieesng -0.0127
-2.2017 con </s> 2.6746
-2.2017 con bij -0.0191
-2.2017 con chuwx 0.0053
-2.2017 con cofn -0.0202
-2.2017 con dao 0.0053
-1.3777 con dduwowfng -0.0068
-2.2017 con gaasu 0.0371
-2.2017 con hai -0.0191
-2.2017 con khir 0.0371
-2.2017 con nguw 0.0371
-2.2017 con nguwowfi -0.0061
-2.2017 con rasi 0.0371
-2.2017 con saau -0.0098
-2.2017 con suw 0.0371
-2.2017 con thuwowfng 0.0278
-2.2017 con tin -0.0179
-2.2017 con tooi -0.0136
-2.2017 con trong -0.0083
-2.2017 con vajc 0.0371
-0.8795 cong vofng -0.0048
-1.9587 coo </s> 2.6746
-0.7947 coo aasy 0.0097
-1.9587 coo ba -0.0179
-1.9587 coo bes -0.0098
-1.9587 coo daau 0.0371
-1.9587 coo ddafo -0.0048
-1.9587 coo ddi 0.0956
-1.9587 coo gasi 0.0053
-1.9587 coo trowr -0.0147
-0.8795 coojng ddoofng -0.0205
-2.1348 coong an 0.0053
-2.1348 coong bawfng -0.0191
-2.1348 coong boos 0.0053
-2.1348 coong chusng -0.0212
-2.1348 coong cura 0.0307
-2.1348 coong ddoajn -0.0048
-2.1348 coong dduwowfng 0.0169
-1.2982 coong ngheej 0.0053
-2.1348 coong nghieejp -0.0098
-2.1348 coong sao -0.0179
-2.1348 coong sown -0.0048
-1.2982 coong tasc 0.0053
-1.2982 coong ty 0.0371
-1.2982 coong vieejc -0.0147
-1.3566 coor anh -0.0225
-1.3566 coor bawfng -0.0191
-1.3566 coor kisnh 0.0371
-0.8795 coorng thoong 0.0597
-1.7246 coos ddijnh 0.2376
-0.9005 coos gawsng 0.0629
-1.7246 coos huwxu -0.0127
-1.7246 coos leen -0.0215
-1.7246 coos trasnh 0.0053
-0.8795 coosc leesu 0.0371
-1.1805 cor </s> 2.6746
-1.1805 cor mojc 0.0371
-2.6990 cos ai -0.0098
-2.6990 cos ba -0.0179
-2.6990 cos boosn 0.0371
-2.6990 cos casc -0.0224
-2.6990 cos casch -0.0147
-2.6990 cos coo -0.0195
-2.6990 cos ddaafu -0.0195
-2.6990 cos ddeem -0.0098
-2.6990 cos ddeo 0.0371
-2.6990 cos dduooi 0.0371
-2.6990 cos dduwowjc -0.0228
-1.8625 cos gif -0.0098
-1.8625 cos hai 0.0187
-2.6990 cos hifnh -0.0098
-2.6990 cos kees 0.0053
-1.8750 cos khi -0.0157
-2.6990 cos khoa -0.0127
-2.6990 cos laasy -0.0127
-2.6990 cos lex -0.0048
-2.6990 cos mafng 0.0371
-1.8625 cos mawjt -0.0048
-2.6990 cos mej -0.0171
-2.6990 cos mifnh -0.0171
-2.6990 cos moojt -0.0230
-2.6990 cos muoosn -0.0171
-2.6990 cos muwa 0.0053
-1.8750 cos nghixa 0.0629
-2.6990 cos nguwowfi -0.0217
-2.6990 cos nhaan -0.0147
-2.6990 cos nhieefu -0.0202
-1.8750 cos nhuwxng -0.0206
-2.6990 cos owr 0.0010
-2.6990 cos phuwowng -0.0127
-2.6990 cos quasn 0.0053
-2.6990 cos tasc -0.0098
-1.8625 cos theem 0.0156
-0.6435 cos theer 0.0166
-2.6990 cos tieefn -0.0161
-2.6990 cos tieesng -0.0127
-2.6990 cos trar 0.0053
-2.6990 cos vaajy -0.0127
-2.6990 cos ys 0.0872
-1.3566 cow barn -0.0147
-1.3566 cow hooji -0.0127
-1.3566 cow mowsi -0.0195
-1.1805 cowf lisp 0.0371
-1.1805 cowf phast 0.0467
-0.8795 cowfi gox -0.0048
-1.1805 cowm nieeu 0.0371
-1.1805 cowm vaf -0.0224
-1.3566 cown ddau -0.0161
-1.3566 cown gios -0.0127
-1.3566 cown loosc 0.0371
-0.8795 cowx </s> 2.6746
-0.8795 coxi cura -0.0230
-0.8795 cua ddeer -0.0220
-1.7246 cufng </s> 2.6746
-1.7246 cufng bajn -0.0216
-1.7246 cufng coos -0.0161
-1.7246 cufng leen -0.0215
-1.7246 cufng nhieefu -0.0202
-1.7246 cufng trong -0.0221
-1.7246 cufng vowsi -0.0219
-0.6450 cung caasp 0.0156
-1.4815 cung ddafn -0.0147
-1.4815 cung thieesu -0.0127
-0.8795 cuoofng ddown 0.0053
-1.3566 cuoojc ddoojt 0.0371
-1.3566 cuoojc soosng 0.0624
-1.3566 cuoojc thi -0.0048
-0.8795 cuoojn thafnh -0.0199
-1.6576 cuoosi </s> 2.6746
-0.4937 cuoosi cufng 0.0097
-1.6576 cuoosi ddoong 0.0872
-0.8795 cuoosn coo -0.0195
-2.5027 cura baf 0.0340
-1.6787 cura bajn 0.0005
-2.5027 cura bojn 0.0053
-2.5027 cura caaju 0.0371
-1.6787 cura casc -0.0184
-2.5027 cura chusng -0.0212
-2.5027 cura con -0.0216
-2.5027 cura cuoojc -0.0048
-2.5027 cura dif 0.0371
-2.5027 cura gia -0.0127
-2.5027 cura hawsn 0.0371
-2.5027 cura hoj -0.0147
-2.5027 cura ker -0.0098
-2.5027 cura mej -0.0171
-2.5027 cura mifnh -0.0171
-0.9243 cura moojt -0.0672
-2.5027 cura nguwowfi -0.0217
-2.5027 cura nhor 0.0445
-2.5027 cura nhu 0.0053
-1.6787 cura nhuwxng -0.0206
-2.5027 cura nos -0.0186
-1.6662 cura oong 0.0149
-2.5027 cura phuf 0.0053
-2.5027 cura phuwowng -0.0127
-2.5027 cura quarn 0.0053
-2.5027 cura quasch 0.0371
-2.5027 cura sung 0.0371
-2.5027 cura thowj 0.0371
-2.5027 cura tooi -0.0136
-2.5027 cura truwowfng -0.0179
-2.5027 cura xia 0.0371
-0.8795 curi nesm 0.0371
-1.3566 cus kher 0.0371
-1.3566 cus sust 0.0371
-1.3566 cus thojc 0.0371
-0.8795 cusc ddaji -0.0098
-1.3566 cuwowfi </s> 2.6746
-1.3566 cuwowfi bor -0.0147
-1.3566 cuwowfi nosi -0.0191
-1.1805 cuwra bawfng -0.0191
-1.1805 cuwra vaf -0.0224
-1.7246 cuws dai 0.0371
-1.7246 cuws ddawjt -0.0147
-1.7246 cuws duwjng -0.0048
-1.7246 cuws len 0.0371
-1.7246 cuws phaan 0.0371
-1.7246 cuws thaasy -0.0210
-1.7246 cuws thay 0.2376
-0.8795 cuwsng rawsn 0.0053
-0.8795 cuwsu </s> 2.6746
-1.9934 cuxng cos -0.0235
-1.9934 cuxng dduwowjc 0.0815
-1.9934 cuxng gioosng 0.0371
-1.1569 cuxng khoong -0.0167
-1.9934 cuxng khoor 0.0053
-1.1569 cuxng phari -0.0193
-1.1569 cuxng sex 0.0118
-1.9934 cuxng thaasy -0.0210
-1.9934 cuxng thuwfa 0.0371
-1.9934 cuxng vaaxn -0.0127
-0.7419 da dden 0.0053
-1.5784 da mown 0.0053
-1.5784 da nhojn 0.0371
-1.5784 da trawsng 0.0371
-0.8795 daafn leen -0.0215
-0.8795 daafu suwowri 0.0371
-0.8795 daajy sowsm 0.0053
-0.9005 daan </s> 2.4775
-1.7246 daan dax 0.0371
-1.7246 daan phari -0.0219
-1.7246 daan toojc 0.0371
-1.7246 daan vaajn 0.0371
-0.8795 daarn </s> 2.6746
-1.1805 daasu chaan -0.0098
-1.1805 daasu hieeju 0.0053
-0.8795 daau </s> 2.6746
-0.8795 daaxn nhaast 0.0263
-1.3566 daay chaxo 0.0371
-1.3566 daay ddowfn 0.0053
-1.3566 daay thawst 0.0371
-1.5784 dafi </s> 2.6746
-1.5784 dafi cura -0.0230
-1.5784 dafi hajn 0.0053
-1.5784 dafi quas -0.0191
-1.5784 dafi treen -0.0213
-1.3566 dafnh </s> 2.6746
-0.5201 dafnh cho -0.0096
-0.8795 dai ngoasch 0.0371
-0.8795 dajng voo -0.0098
-0.8795 dang roojng -0.0048
-0.8795 danh booj -0.0048
-1.1805 dao disnh 0.0371
-1.1805 dao maf -0.0213
-1.1805 dasc daso 0.0371
-1.1805 dasc tifm -0.0098
-1.3566 dasng </s> 2.6746
-1.3566 dasng cura 0.0307
-1.3566 dasng moojt -0.0156
-0.8795 daso dasc 0.0053
-0.8795 dawfng dawjc 0.0371
-0.8795 dawjc tuwf -0.0191
-0.8795 dax nhuw -0.0210
-1.1805 daxy nhaf -0.0205
-1.1805 daxy phoos -0.0098
-1.1805 dda hai -0.0191
-1.1805 dda soos -0.0048
-0.8795 ddaafm laafy 0.0371
-1.9587 ddaafu bajn -0.0216
-1.9587 ddaafu chuyeern 0.0053
-1.9587 ddaafu cos -0.0235
-1.9587 ddaafu ddax -0.0217
-1.9587 ddaafu ddeer -0.0220
-1.9587 ddaafu khasch -0.0147
-1.9587 ddaafu lojc 0.0371
-1.9587 ddaafu nhen 0.0371
-1.1222 ddaafu tieen 0.0371
-1.9587 ddaafu tuw -0.0127
-1.9587 ddaafu vowr 0.0371
-1.4815 ddaafy carnh -0.0161
-1.4815 ddaafy ddoof -0.0048
-1.4815 ddaafy ddur -0.0098
-1.4815 ddaafy trieern -0.0127
-0.8795 ddaajt bieeru -0.0048
-0.8795 ddaaju nafnh 0.0371
-0.8795 ddaam chesm -0.0048
-1.4815 ddaast lieefn 0.0371
-1.4815 ddaast mufn 0.0371
-1.4815 ddaast nuwowsc -0.0186
-1.4815 ddaast trowr -0.0147
-1.1805 ddaasu </s> 2.6746
-1.1805 ddaasu quar -0.0161
-1.3566 ddaasy </s> 2.6746
-1.3566 ddaasy af 0.2376
-1.3566 ddaasy laf -0.0166
-1.6576 ddaau </s> 2.6746
-1.6576 ddaau basn -0.0048
-1.6576 ddaau ddaasy -0.0048
-1.6576 ddaau dduwfng -0.0048
-1.6576 ddaau laf -0.0232
-1.6576 ddaau vafo -0.0205
-1.0430 ddaay </s> 2.5193
-1.8795 ddaay cos -0.0235
-1.8795 ddaay ddos 0.2519
-1.8795 ddaay khoa 0.1868
-1.0554 ddaay laf -0.1126
-1.8795 ddaay nhifn -0.0161
-1.8795 ddaay sao 0.0217
-0.8795 ddaf ddieeru 0.0371
-0.8795 ddafi nafy -0.0220
-1.6576 ddafn </s> 2.6746
-0.8211 ddafn baf -0.0077
-0.8211 ddafn oong 0.0149
-1.6576 ddafn sau -0.0210
-0.8795 ddafnh bor -0.0147
-1.3566 ddafo </s> 2.6746
-1.3566 ddafo lafm -0.0215
-1.3566 ddafo trer -0.0127
-1.4815 ddaji ddosa 0.0371
-1.4815 ddaji hojc -0.0171
-1.4815 ddaji nhuw -0.0210
-1.4815 ddaji tin -0.0179
-0.8795 ddajn vaf -0.0224
-0.8795 ddajo lafm -0.0215
-0.8795 ddajp </s> 2.6746
-1.3566 ddajt dduwowjc -0.0136
-1.3566 ddajt gaafn -0.0098
-1.3566 ddajt hieeju 0.0053
-2.0556 ddang coi 0.0053
-1.2191 ddang dduwowjc -0.0212
-2.0556 ddang dduwsng 0.0053
-2.0556 ddang giao 0.0053
-2.0556 ddang his 0.0371
-2.0556 ddang hoafn 0.0053
-2.0556 ddang nawfm -0.0127
-2.0556 ddang ngoofi -0.0048
-2.0556 ddang oosm 0.0053
-2.0556 ddang owr -0.0208
-2.0556 ddang phari -0.0219
-2.0556 ddang raast -0.0171
-2.0556 ddang tieesn 0.0371
-2.0556 ddang xuoosng -0.0147
-0.8795 ddarng </s> 2.6746
-0.8795 ddaro lawsm -0.0127
-1.3566 ddas </s> 2.6746
-1.3566 ddas banh 0.0371
-1.3566 ddas nhuw -0.0210
-0.8795 ddasm bajn -0.0216
-0.8795 ddasnh em -0.0210
-0.8795 ddasp </s> 2.6746
-0.8795 ddasy bieern 0.0872
-1.7246 ddau </s> 2.6746
-1.7246 ddau bujng 0.0371
-1.7246 ddau cura 0.0307
-0.8881 ddau ddowsn 0.0823
-1.7246 ddau oosm 0.0053
-1.7246 ddau tawng -0.0098
-0.8795 ddawfng xa -0.0048
-1.1805 ddawjc quasnh 0.0371
-1.1805 ddawjc truwng 0.0053
-1.6576 ddawjt bust 0.0371
-1.6576 ddawjt cho -0.0225
-1.6576 ddawjt con -0.0216
-0.8336 ddawjt ra -0.0058
-2.2219 ddax aasn -0.0048
-2.2219 ddax cho -0.0225
-2.2219 ddax chuwsng -0.0098
-2.2219 ddax cos -0.0235
-2.2219 ddax ddajt -0.0048
-2.2219 ddax ddown 0.0053
-1.3854 ddax gaay -0.0077
-2.2219 ddax maast -0.0048
-2.2219 ddax neeu 0.0371
-2.2219 ddax nghe -0.0147
-2.2219 ddax nhaajn -0.0147
-2.2219 ddax nhifn 0.0358
-2.2219 ddax nosi -0.0191
-2.2219 ddax phari -0.0219
-2.2219 ddax qua -0.0179
-1.3979 ddax quas -0.0785
-2.2219 ddax thuyeest 0.0371
-2.2219 ddax trari 0.0371
-2.2219 ddax vaf -0.0110
-0.8795 dde cao -0.0161
-1.3566 ddeef dduwowjc -0.0228
-1.3566 ddeef nghij 0.0371
-1.3566 ddeef phuf 0.0053
-0.8795 ddeefn ddasp 0.0371
-1.3566 ddeefu </s> 2.6746
-1.3566 ddeefu quay 0.0053
-1.3566 ddeefu sawxn 0.0371
-0.6450 ddeem </s> 2.5193
-1.4815 ddeem gawjp -0.0171
-1.4815 ddeem mowsi -0.0195
-2.2597 ddeer basn -0.0048
-2.2597 ddeer bieest 0.0157
-2.2597 ddeer buoofn 0.1318
-2.2597 ddeer chuoong 0.0371
-2.2597 ddeer coo 0.0516
-1.4356 ddeer cos -0.0084
-2.2597 ddeer dafnh -0.0048
-2.2597 ddeer ddajt -0.0048
-2.2597 ddeer ddoosi 0.0053
-2.2597 ddeer dofng -0.0098
-2.2597 ddeer khoong -0.0234
-2.2597 ddeer kieesm 0.2376
-1.4232 ddeer naang 0.0053
-2.2597 ddeer nhaajn 0.0467
-2.2597 ddeer nhifn 0.0358
-2.2597 ddeer thaasy -0.0210
-2.2597 ddeer thay 0.2376
-2.2597 ddeer theo -0.0127
-2.2597 ddeer thuwjc 0.0597
-2.2597 ddeer vaajt -0.0098
-2.2597 ddeer xin -0.0127
-0.8795 ddeesm xoefn 0.0371
-2.0836 ddeesn </s> 2.6746
-2.0836 ddeesn chuaarn -0.0098
-1.2471 ddeesn ddaay -0.1397
-2.0836 ddeesn duwj 0.0371
-2.0836 ddeesn duwowfng 0.2376
-2.0836 ddeesn hoom 0.1265
-2.0836 ddeesn laafn -0.0161
-2.0836 ddeesn laf -0.0166
-2.0836 ddeesn meefm 0.0053
-2.0836 ddeesn ngaast 0.0371
-2.0836 ddeesn nhaf -0.0205
-2.0836 ddeesn phofng -0.0127
-2.0836 ddeesn taajn 0.0371
-2.0836 ddeesn thowfi 0.0358
-2.0836 ddeesn vaasn 0.0371
-0.8795 ddeexnh ddeer -0.0220
-1.4815 ddejp </s> 2.6746
-1.4815 ddejp em -0.0210
-0.6450 ddejp mawst -0.1290
-1.4815 dden </s> 2.6746
-1.4815 dden nhor 0.0445
-1.4815 dden sif 0.0371
-1.4815 dden vafo -0.0205
-0.8795 ddeo nejp 0.0371
-0.6173 ddi </s> 1.8539
-2.3419 ddi barn -0.0147
-2.3419 ddi bieejt 0.0053
-2.3419 ddi chaafm 0.0371
-2.3419 ddi chojn -0.0048
-2.3419 ddi chowi -0.0127
-2.3419 ddi coong -0.0019
-2.3419 ddi dduwowfng -0.0186
-2.3419 ddi giaafy 0.0371
-2.3419 ddi giaajt 0.0371
-2.3419 ddi gieest 0.0371
-2.3419 ddi laafn -0.0161
-2.3419 ddi lafm -0.0215
-2.3419 ddi laji -0.0208
-2.3419 ddi mai -0.0048
-2.3419 ddi mua -0.0098
-2.3419 ddi nhaaju 0.0371
-2.3419 ddi thirnh 0.0371
-2.3419 ddi towsi -0.0098
-2.3419 ddi vowsi -0.0219
-2.3419 ddi vuwfa -0.0147
-2.3419 ddi xem -0.0098
-2.3419 ddi xom 0.0371
-1.9209 ddieefu aasn 0.1318
-1.0968 ddieefu ddos 0.3051
-1.0844 ddieefu gif -0.1275
-1.9209 ddieefu hofa 0.0053
-1.9209 ddieefu nafy 0.1254
-1.9209 ddieefu rawn -0.0048
-1.9209 ddieefu toost 0.0263
-1.9209 ddieefu trij -0.0048
-1.1805 ddieejn phong 0.1318
-1.1805 ddieejn tuwr -0.0127
-0.8795 ddieeju nguyeen -0.0127
-0.8795 ddieen tirnh 0.0371
-1.6576 ddieerm ddaafu 0.0097
-1.6576 ddieerm gojn 0.0371
-1.6576 ddieerm hejn 0.0371
-1.6576 ddieerm hown 0.1437
-1.6576 ddieerm keest 0.0157
-1.6576 ddieerm nafy -0.0220
-0.8795 ddieeru </s> 2.6746
-0.8795 ddifnh oong -0.0195
-0.8795 ddifu hiu 0.0053
-0.8795 ddija khoong -0.0234
-0.3440 ddijnh </s> 2.5193
-0.8795 ddisch thuwjc -0.0127
-0.8795 ddo saau -0.0098
-1.3566 ddoajn hay -0.0186
-1.3566 ddoajn nafy 0.1254
-1.3566 ddoajn ngoawfn 0.0371
-0.8795 ddofi thafnh -0.0199
-0.8795 ddofn gasnh -0.0098
-0.8795 ddojc dduwowjc 0.0815
-0.8795 ddong dduwa -0.0048
-1.3566 ddoof cho -0.0115
-1.3566 ddoof vaajt -0.0098
-1.3566 ddoof vafo -0.0205
-1.1805 ddoofi </s> 2.6746
-1.1805 ddoofi trujy 0.0371
-1.2191 ddoofng </s> 2.5193
-2.0556 ddoofng casc -0.0224
-2.0556 ddoofng chis -0.0098
-2.0556 ddoofng cho -0.0115
-2.0556 ddoofng chum 0.0371
-2.0556 ddoofng ddeefu -0.0048
-2.0556 ddoofng ddooji -0.0048
-2.0556 ddoofng hay -0.0186
-2.0556 ddoofng mun 0.0371
-2.0556 ddoofng nghieejp -0.0098
-2.0556 ddoofng thasp 0.0371
-2.0556 ddoofng thif -0.0161
-2.0556 ddoofng tieefn -0.0161
-2.0556 ddoofng xax 0.0053
-1.1805 ddooi mas 0.0053
-1.1805 ddooi mawst -0.0171
-1.1805 ddooj khoong -0.0234
-1.1805 ddooj nhasy 0.0371
-0.8795 ddoojc </s> 2.6746
-1.3566 ddooji quaan 0.0371
-1.3566 ddooji thi 0.1318
-1.3566 ddooji tuyeern 0.0053
-1.5784 ddoojng </s> 2.6746
-1.5784 ddoojng nafy -0.0220
-1.5784 ddoojng truwowsc -0.0147
-1.5784 ddoojng vaajt -0.0098
-1.5784 ddoojng vowsi -0.0219
-0.8795 ddoojt kisch 0.0053
-0.6450 ddoong </s> 2.5193
-1.4815 ddoong bawsc 0.0371
-1.4815 ddoong ddaro 0.0371
-1.5784 ddoori bajn -0.0216
-1.5784 ddoori gen 0.0371
-1.5784 ddoori nafo -0.0186
-1.5784 ddoori nhuwxng -0.0160
-1.5784 ddoori vowj 0.0872
-1.1805 ddoosi chieesu 0.0371
-1.1805 ddoosi tuwowjng -0.0098
-0.8795 ddoosng tafi -0.0098
-0.8795 ddoost than 0.0371
-1.1805 ddor </s> 2.6746
-1.1805 ddor quajch 0.0371
-0.3274 ddos </s> 1.7959
-2.1099 ddos chasu 0.0053
-1.2734 ddos cos -0.0176
-2.1099 ddos khoong 0.0231
-2.1099 ddos khos -0.0048
-1.2734 ddos laf -0.0156
-2.1099 ddos nhuwxng -0.0160
-2.1099 ddos vex 0.0053
-0.8795 ddosa hafng 0.0053
-0.8795 ddosng im 0.0371
-1.5784 ddowfi </s> 2.6746
-1.5784 ddowfi ddi -0.0224
-1.5784 ddowfi phafm 0.0371
-1.5784 ddowfi sex 0.0453
-1.5784 ddowfi vif -0.0147
-1.1805 ddowfn cof 0.0371
-1.1805 ddowfn cura -0.0149
-1.1805 ddowjt muwa 0.0053
-1.1805 ddowjt phast -0.0147
-1.1805 ddown giarn 0.0371
-1.1805 ddown phuwowng -0.0127
-0.3440 ddowsn </s> 2.5193
-0.8795 ddujc cura -0.0230
-0.8795 dduooi </s> 2.6746
-0.8795 dduoosc </s> 2.6746
-1.4815 ddur chuyeejn -0.0098
-1.4815 ddur hueef 0.0371
-1.4815 ddur luwja 0.0371
-1.4815 ddur veef -0.0208
-0.8795 ddusc neen -0.0161
-1.3566 ddusng boosi 0.0371
-1.3566 ddusng ddajo 0.0371
-1.3566 ddusng thowfi -0.0161
-1.3566 dduwa cho -0.0225
-1.3566 dduwa dduwowjc -0.0228
-1.3566 dduwa theo -0.0127
-1.3566 dduwfng bao 0.1437
-1.3566 dduwfng la 0.0371
-1.3566 dduwfng lo -0.0048
-1.0430 dduwowfng </s> 2.5193
-1.8795 dduwowfng dawfng 0.0371
-1.8795 dduwowfng ddi -0.0224
-1.8795 dduwowfng nafy 0.1254
-1.8795 dduwowfng phari -0.0219
-1.8795 dduwowfng quee 0.0053
-1.8795 dduwowfng tus 0.0053
-1.8795 dduwowfng vafo -0.0205
-1.8795 dduwowfng vofng -0.0048
-0.6651 dduwowjc </s> 1.7959
-1.6112 dduwowjc ai 0.0053
-2.4477 dduwowjc casc -0.0110
-2.4477 dduwowjc chisnh -0.0127
-2.4477 dduwowjc cuoojn 0.0371
-2.4477 dduwowjc ddeefn 0.0371
-1.6112 dduwowjc ddieefu 0.0176
-2.4477 dduwowjc hay -0.0186
-2.4477 dduwowjc keest -0.0186
-2.4477 dduwowjc khosa 0.0053
-2.4477 dduwowjc laasy -0.0127
-2.4477 dduwowjc moji 0.0358
-2.4477 dduwowjc mowfi -0.0048
-2.4477 dduwowjc ngawn -0.0048
-2.4477 dduwowjc nghe -0.0147
-2.4477 dduwowjc nhieefu -0.0202
-2.4477 dduwowjc nhuwxng -0.0157
-2.4477 dduwowjc nosi -0.0191
-2.4477 dduwowjc oom 0.0053
-2.4477 dduwowjc oong -0.0195
-2.4477 dduwowjc owr -0.0208
-2.4477 dduwowjc quyeest 0.0053
-2.4477 dduwowjc suwj -0.0179
-2.4477 dduwowjc tifm -0.0098
-2.4477 dduwowjc tin 0.0217
-2.4477 dduwowjc tisnh -0.0171
-2.4477 dduwowjc trar 0.0053
-2.4477 dduwowjc trawsc 0.0371
-1.1805 dduwsc bij -0.0191
-1.1805 dduwsc laf -0.0166
-1.1805 dduwsng ngoafi -0.0127
-1.1805 dduwsng vafo -0.0205
-0.8795 dduxa </s> 2.6746
-1.1805 deex bafy 0.0053
-1.1805 deex nhows -0.0098
-0.8795 def laafn -0.0161
-1.1805 dieexn bieesn -0.0098
-1.1805 dieexn cuxng -0.0199
-0.8795 dif cura -0.0230
-0.8795 dijch cuoosi 0.1437
-0.8795 diju cown -0.0048
-0.8795 disnh tieest 0.0053
-0.8795 dix lafn 0.0371
-0.8795 dixa </s> 2.6746
-1.3566 do bajn -0.0216
-1.3566 do hooji -0.0127
-1.3566 do vowsi -0.0219
-1.1805 doanh </s> 2.6746
-1.1805 doanh doanh 0.0053
-1.4815 dofng ddoojng -0.0127
-1.4815 dofng nguwowfi -0.0217
-1.4815 dofng nuwowsc -0.0186
-1.4815 dofng soong 0.0053
-0.8795 dojc ddaam 0.0371
-0.8795 dooji nhuw -0.0210
-0.8795 doong dafi -0.0127
-0.8795 doosc </s> 2.6746
-0.8795 dows daarn 0.0371
-0.8795 doxi thuwr -0.0098
-0.8795 du khasch -0.0147
-1.1805 duf cos -0.0235
-1.1805 duf gaafn -0.0098
-0.8795 dufi ddujc 0.0371
-1.1805 dufng daay -0.0048
-1.1805 dufng dao 0.0053
-1.3566 dujng </s> 2.6746
-1.3566 dujng cafng 0.0624
-1.3566 dujng nguyeen -0.0127
-0.8795 dung vaf -0.0224
-0.8795 duw hoafng 0.0053
-1.1805 duwfng laji 0.0002
-1.1805 duwfng masy -0.0127
-0.8795 duwj rifnh 0.0371
-0.8795 duwja treen -0.0038
-1.3566 duwjng </s> 2.6746
-1.3566 duwjng cuws -0.0161
-1.3566 duwjng ys 0.0872
-0.3440 duwowfng nafo -0.1384
-0.8795 duwowjc </s> 2.6746
-1.1805 duwowng coor -0.0048
-1.1805 duwowng luwjc -0.0098
-1.5784 duwowsi ddasy 0.0371
-1.5784 duwowsi khe 0.0371
-1.5784 duwowsi moojt -0.0230
-1.5784 duwowsi nawsng -0.0048
-1.5784 duwowsi safn 0.0371
-0.8795 duwst ddieerm -0.0147
-0.8795 duxng ngay -0.0147
-0.3440 duy nhaast -0.0098
-0.8795 duyeen lafnh 0.2376
-0.8795 ee car -0.0205
-1.2859 em </s> 2.4775
-2.1099 em bes -0.0098
-2.1099 em chee 0.0371
-2.1099 em cofn 0.0047
-2.1099 em ddejp -0.0098
-1.2734 em khoong -0.0224
-2.1099 em lowsn 0.0053
-2.1099 em nafo -0.0186
-2.1099 em nafy -0.0220
-2.1099 em nhanh 0.0053
-2.1099 em nuwxa 0.9299
-2.1099 em phof 0.0371
-2.1099 em thaajm 0.0371
-2.1099 em veef -0.0208
-1.1805 esp giefm 0.0371
-1.1805 esp nhosm -0.0127
-0.6450 gaafn ddaay -0.0127
-1.4815 gaafn ddeesn -0.0208
-1.4815 gaafn hay -0.0186
-0.8795 gaafy guoojc 0.0371
-0.3440 gaasp </s> 2.5193
-0.8795 gaasu pharn -0.0048
-1.7246 gaay </s> 2.6746
-1.7246 gaay aasn 0.1318
-1.7246 gaay hafo 0.0053
-0.9005 gaay ra -0.0058
-1.7246 gaay tuwr -0.0127
-0.8795 gaf cuws -0.0161
-1.1805 gajch </s> 2.6746
-1.1805 gajch choong 0.0371
-1.1805 gasi </s> 2.6746
-1.1805 gasi laji -0.0208
-1.4815 gasnh chajy -0.0048
-1.4815 gasnh nuwowsc -0.0186
-1.4815 gasnh quaf 0.0371
-1.4815 gasnh xuoosng -0.0147
-1.7826 gawjp anh -0.0225
-1.7826 gawjp coo 0.0516
-1.7826 gawjp khos -0.0048
-1.7826 gawjp laji -0.0208
-1.7826 gawjp nhosm -0.0127
-1.7826 gawjp phari -0.0219
-1.7826 gawjp phofng -0.0127
-1.7826 gawjp tai 0.1318
-0.8795 gawsm taam -0.0098
-0.5201 gawsng ddeer -0.0195
-1.3566 gawsng thuwjc 0.0597
-0.8795 gen nafy 0.1254
-0.8795 ghe bij -0.0191
-0.8795 ghex </s> 2.6746
-1.3566 ghi dduwowjc -0.0228
-1.3566 ghi laji -0.0208
-1.3566 ghi nhows -0.0098
-1.5784 gia </s> 2.6746
-1.5784 gia coong -0.0212
-1.5784 gia ddifnh 0.0371
-1.5784 gia i 0.0371
-1.5784 gia tawng -0.0098
-0.8795 giaafy da -0.0127
-0.8795 giaajt dojc 0.0371
-0.8795 giaasy </s> 2.6746
-0.8795 giaay phust 0.0371
-1.1805 giaf </s> 2.6746
-1.1805 giaf hai -0.0191
-0.8795 giafu ddoori -0.0127
-0.8795 giam cos -0.0235
-0.8795 gian tifnh -0.0171
-0.8795 giang ddi -0.0224
-1.1805 giao coong -0.0019
-1.1805 giao howjp -0.0147
-0.8795 giar nhifn -0.0161
-0.8795 giarm khi -0.0215
-0.8795 giarn laf -0.0232
-1.1805 giarnh </s> 2.6746
-1.1805 giarnh chir -0.0212
-1.3566 gias befo 0.0371
-1.3566 gias car -0.0205
-1.3566 gias trij -0.0048
-0.8795 giasm thij -0.0171
-1.1805 giaxn cawng 0.0371
-1.1805 giaxn khoong 0.0315
-0.8795 giaxy giuja 0.0371
-0.8795 gieest moor 0.0371
-0.8795 giefm pha 0.0053
-1.7826 gif </s> 2.6746
-1.7826 gif cuxng 0.0070
-1.7826 gif ddaau -0.0147
-0.9461 gif ddos 0.0965
-1.7826 gif ddusng -0.0048
-1.7826 gif laf -0.0166
-1.7826 gif maf -0.0213
-0.8795 gifn vosc 0.0371
-1.1805 giojng </s> 2.6746
-1.1805 giojng larnh 0.0371
-0.8795 gioosng y 0.0053
-1.3566 giori boosc 0.0053
-1.3566 giori roofi 0.2187
-1.3566 giori thooi -0.0127
-1.5784 gios ddeer -0.0220
-1.5784 gios khex 0.0371
-1.5784 gios lawjng 0.0053
-1.5784 gios trong -0.0083
-1.5784 gios vaxi 0.0371
-1.7246 giowf cofn 0.0047
-1.7246 giowf cos 0.0876
-1.7246 giowf laf -0.0232
-1.7246 giowf looxi -0.0048
-1.7246 giowf ra -0.0101
-1.7246 giowf tooi -0.0228
-1.7246 giowf tuwj -0.0179
-1.1805 giowsi nafy -0.0220
-1.1805 giowsi thieeju 0.0371
-0.8795 giuja </s> 2.6746
-1.1805 giusp haxng 0.0371
-1.1805 giusp vieejc -0.0195
-1.1805 giuwx casc -0.0224
-1.1805 giuwx gifn 0.0371
-1.5784 giuwxa </s> 2.6746
-1.5784 giuwxa casc -0.0224
-1.5784 giuwxa choosn 0.0371
-1.5784 giuwxa moojt -0.0230
-1.5784 giuwxa quajnh 0.0371
-0.8795 giux bor -0.0147
-0.8795 gofn </s> 2.6746
-1.4815 goji dduwowjc 0.0815
-1.4815 goji em -0.0210
-1.4815 goji huwng 0.0371
-1.4815 goji laji -0.0208
-0.8795 gojn ghex 0.0371
-0.8795 goofng gasnh -0.0098
-0.8795 goosc </s> 2.6746
-0.8795 gowsm casi -0.0186
-0.8795 gowx laji -0.0208
-1.3566 gox gox -0.0048
-1.3566 gox lajch 0.0371
-1.3566 gox leen -0.0042
-0.8795 guoojc treen -0.0038
-0.8795 guwowng mawjt -0.0147
-1.1805 guwri gawsm 0.0371
-1.1805 guwri tieefn -0.0161
-1.3566 haaju mowsi -0.0195
-0.5201 haaju quar -0.0077
-0.8795 haasp daaxn 0.0371
-1.1805 haf anh -0.0225
-1.1805 haf thafnh 0.0061
-1.1805 hafi </s> 2.6746
-1.1805 hafi mai -0.0048
-0.8795 hafn quoosc -0.0127
-1.1805 hafng chuwx 0.0053
-1.1805 hafng trawm 0.0371
-0.5201 hafnh </s> 2.5193
-1.3566 hafnh vi -0.0048
-1.1805 hafo huwsng 0.0371
-1.1805 hafo nhoasng 0.0371
-1.9209 hai bafn -0.0161
-1.9209 hai giarnh 0.0053
-1.9209 hai laf -0.0232
-1.9209 hai luw 0.0371
-1.0844 hai nguyeejn -0.0236
-1.9209 hai noor 0.0371
-1.9209 hai rowst 0.0371
-1.9209 hai thuws -0.0161
-1.9209 hai tuwf -0.0191
-1.9209 hai vuwfa -0.0147
-0.8795 hajc laau -0.0048
-1.1805 hajn </s> 2.6746
-1.1805 hajn awn -0.0179
-0.8795 hajo low 0.0053
-0.8795 ham muoosn -0.0171
-0.8795 hang phari -0.0069
-0.8795 har </s> 2.6746
-1.3566 hast chieesn -0.0098
-1.3566 hast nhosm 0.0624
-1.3566 hast sai 0.0053
-0.8795 hawfng ngafy -0.0186
-0.8795 hawsn mowr -0.0048
-0.8795 haxng tawng -0.0098
-1.5784 haxy ddawjt 0.0445
-1.5784 haxy ddeer -0.0220
-1.5784 haxy lieen 0.0371
-1.5784 haxy nghe -0.0147
-1.5784 haxy thuwr -0.0098
-1.8795 hay laf -0.0232
-1.8795 hay maf -0.0031
-1.8795 hay nguwowjc 0.0053
-1.8795 hay pheest 0.0371
-1.8795 hay thaam 0.0371
-1.8795 hay thieejt 0.2376
-1.8795 hay thua 0.0371
-1.8795 hay tij 0.0371
-1.8795 hay truwng 0.0053
-1.8795 hay xa -0.0048
-0.9005 heest </s> 2.4775
-1.7246 heest cowx 0.0371
-1.7246 heest dduwowjc -0.0228
-1.7246 heest laafn -0.0161
-1.7246 heest tuaafn 0.0624
-1.1805 hef phoos 0.0872
-1.1805 hef troosng -0.0147
-0.8795 hejn mowsi -0.0195
-1.1805 heo beejnh -0.0171
-1.1805 heo nojc 0.0371
-0.8795 hi vojng -0.0147
-0.8795 hieefn </s> 2.6746
-1.1222 hieejn </s> 2.5193
-1.9587 hieejn casc -0.0224
-1.9587 hieejn coong -0.0212
-1.9587 hieejn ddaji -0.0098
-1.9587 hieejn ddusng -0.0048
-1.1222 hieejn dduwowjc -0.0120
-1.9587 hieejn khar 0.2376
-1.9587 hieejn nguyeen -0.0127
-1.9587 hieejn thieesu -0.0127
-1.9587 hieejn trajng -0.0048
-1.1805 hieeju duy 0.2376
-1.1805 hieeju quar -0.0161
-0.8795 hieen nafy -0.0220
-0.8795 hieerm lawsm -0.0127
-0.8795 hieeru heest -0.0161
-0.8795 hieesm khi -0.0215
-0.8795 hieesu phasp 0.1318
-1.4815 hifnh </s> 2.6746
-1.4815 hifnh arnh 0.0371
-1.4815 hifnh cura -0.0230
-1.4815 hifnh dasng -0.0048
-0.8795 his husi 0.0371
-1.1805 hiu bowri -0.0098
-1.1805 hiu las -0.0048
-0.8795 hoa cusc 0.0371
-1.1805 hoafn chirnh 0.0371
-1.1805 hoafn thafnh -0.0199
-1.1805 hoafng hajc 0.0371
-1.1805 hoafng nooji -0.0048
-0.8795 hoafnh trasng 0.0053
-0.8795 hoajch dafi -0.0127
-0.8795 hoaji cura -0.0230
-1.1805 hoajt ddoojng -0.0127
-1.1805 hoajt hown 0.1437
-0.8795 hoang cho -0.0225
-0.8795 hoarng mooi 0.0371
-0.3440 hoasc </s> 2.5193
-0.8795 hoawjc tuwj -0.0179
-1.1805 hofa laf -0.0232
-1.1805 hofa thij 0.0263
-1.6576 hoj bieest -0.0186
-1.6576 hoj chafo 0.0053
-1.6576 hoj hieejn -0.0195
-1.6576 hoj mang -0.0127
-1.6576 hoj nosi -0.0191
-1.6576 hoj taji -0.0048
-0.8795 hoja mafu -0.0048
-1.7826 hojc </s> 2.6746
-1.7826 hojc cho -0.0225
-1.7826 hojc ddax -0.0217
-1.7826 hojc hafn 0.0371
-1.7826 hojc khoa 0.1868
-1.7826 hojc nhor -0.0147
-1.7826 hojc taajp -0.0127
-1.7826 hojc tuwj 0.0203
-0.8795 hoo hoos 0.0371
-1.5784 hoof chis -0.0098
-1.5784 hoof hosc 0.0371
-1.5784 hoof nuwowsc -0.0186
-1.5784 hoof sow 0.0371
-1.5784 hoof taay 0.0053
-0.8795 hoofn cura -0.0230
-1.1805 hoofng ngojc 0.0371
-1.1805 hoofng nhuwxng -0.0231
-0.8795 hooj daan -0.0161
-1.5784 hooji </s> 2.6746
-1.5784 hooji ddoofng -0.0205
-1.5784 hooji luoon -0.0186
-1.5784 hooji trong -0.0221
-1.5784 hooji tuwowfm 0.0371
-0.5326 hoom nay 0.0009
-0.8795 hoos roofi -0.0202
-0.8795 hoox trowj 0.0371
-1.4815 hori </s> 2.6746
-1.4815 hori mifnh -0.0171
-1.4815 hori thees -0.0191
-1.4815 hori veef -0.0208
-0.8795 hosa phaarm 0.0053
-0.8795 hosc lowr 0.0371
-0.8795 howi bawfng -0.0191
-0.8211 howjp </s> 2.5193
-1.6576 howjp ddoofng -0.0205
-1.6576 howjp lys -0.0098
-1.6576 howjp phasp 0.1318
-1.6576 howjp vowsi -0.0219
-0.4937 hown </s> 1.7991
-1.6576 hown laf -0.0232
-1.6576 hown phieen 0.0371
-0.8795 howr </s> 2.6746
-0.8795 huaasn luyeejn 0.0053
-0.8795 hueef voosn 0.0371
-0.8795 hueesch troosng 0.0467
-0.8795 hun ddusc 0.0371
-0.8795 huow troosng 0.0467
-0.8795 hury taast 0.1265
-0.8795 husi quay 0.0053
-1.1805 hust masu 0.0053
-1.1805 hust thifa 0.0371
-0.8795 huwfng huwjc 0.0371
-0.8795 huwjc ddeesn -0.0208
-0.8795 huwng laf -0.0232
-1.1805 huwowng coor -0.0048
-1.1805 huwowng sau -0.0210
-0.8795 huwowsng mown 0.0053
-0.8795 huwsng treen -0.0213
-1.5784 huwxu cura -0.0230
-1.5784 huwxu hajn 0.0053
-0.7419 huwxu isch 0.0371
-1.5784 huwxu thaajt -0.0127
-0.8795 huxm nuwowsc -0.0186
-0.8795 huyeexn </s> 2.6746
-0.8795 huyfnh phuwowng -0.0127
-0.8795 hy vojng -0.0147
-0.8795 i nhoorn 0.0371
-0.8795 im irm 0.0371
-0.8795 irm </s> 2.6746
-1.1805 isch dafnh 0.1318
-1.1805 isch trong -0.0221
-0.8795 ist nuwowsc -0.0186
-0.8795 keejnh leen 0.1627
-0.8795 keer tuwf -0.0191
-1.1805 kees hoajch 0.0371
-1.1805 kees thowfi -0.0161
-1.0430 keest </s> 2.5193
-1.8795 keest howjp 0.0467
-1.8795 keest luaajn 0.0371
-1.0430 keest quar -0.0077
-1.8795 keest sex -0.0199
-1.0554 keest thusc 0.0371
-0.8795 kejt coong -0.0019
-1.4815 ker caajy 0.0371
-1.4815 ker khosc 0.0053
-1.4815 ker sast 0.0371
-1.4815 ker thuf 0.0371
-0.8795 keso chij -0.0098
-0.8795 khaaru ddang -0.0205
-0.8795 khaasu troosng -0.0147
-0.8795 khafng buoong 0.0371
-0.3440 khar nawng 0.0053
-0.8795 khas laj 0.0371
-0.3176 khasc </s> 1.7991
-1.6576 khasch qua -0.0179
-0.8211 khasch sajn 0.0823
-1.6576 khasch thuwa 0.0371
-1.6576 khasch vafo 0.0019
-1.6576 khasch vowsi 0.0136
-0.8795 khasm chuyeen -0.0098
-0.8795 khasn giar 0.0371
-0.8795 khawn vif -0.0147
-0.8795 khawsc nghieejt 0.0371
-0.8795 khe suoosi 0.0371
-0.8795 khen em -0.0210
-0.8795 kher treen -0.0213
-0.8795 kheso tasn 0.0053
-0.8795 khex khafng 0.0371
-2.1805 khi </s> 2.6746
-2.1805 khi anh -0.0225
-1.3440 khi bajn -0.0023
-2.1805 khi ca 0.0053
-2.1805 khi car -0.0205
-2.1805 khi casc -0.0106
-2.1805 khi chi 0.0053
-2.1805 khi coojng 0.0371
-2.1805 khi ddasm 0.0371
-1.3565 khi ddi -0.0184
-2.1805 khi lafm -0.0215
-2.1805 khi lawjp 0.0371
-2.1805 khi nghir 0.0371
-2.1805 khi nhuwxng -0.0157
-2.1805 khi nos -0.0186
-2.1805 khi teen -0.0048
-2.1805 khi ur 0.0371
-1.4815 khieesn bajn -0.0216
-0.6450 khieesn chieesc -0.0077
-1.4815 khieesn nhu 0.0053
-0.8795 khinh khi -0.0215
-0.8795 khir </s> 2.6746
-1.1805 khis nhajc 0.0872
-1.1805 khis phasch 0.0371
-0.8795 khisu choox 0.0371
-0.8795 kho lusa 0.0371
-0.4145 khoa hojc 0.0053
-1.5784 khoa khasm 0.0371
-0.8795 khoanh trofn 0.0371
-0.8795 khoasn chaau 0.0371
-0.8795 khooi hafi 0.0053
-0.9183 khoong </s> 1.8539
-1.8189 khoong bao -0.0535
-2.6429 khoong bawst -0.0098
-1.8064 khoong bieest 0.0597
-2.6429 khoong chus 0.0053
-1.8064 khoong cofn 0.0091
-2.6429 khoong coos 0.0340
-0.9853 khoong cos -0.0505
-2.6429 khoong ddoofng -0.0205
-2.6429 khoong ddur -0.0098
-1.8064 khoong dduwowjc -0.0212
-2.6429 khoong def 0.0371
-2.6429 khoong duw 0.0371
-2.6429 khoong gaay 0.0340
-2.6429 khoong goji -0.0098
-2.6429 khoong kieefm 0.0371
-1.8064 khoong lafm -0.0012
-2.6429 khoong mowr 0.1318
-2.6429 khoong muoosn -0.0171
-2.6429 khoong neen -0.0161
-2.6429 khoong ngowst 0.0371
-2.6429 khoong nguoofn 0.0371
-2.6429 khoong nhows -0.0098
-1.4790 khoong phari -0.1437
-2.6429 khoong qua 0.0217
-2.6429 khoong sasnh 0.0371
-2.6429 khoong say 0.0371
-2.6429 khoong sowj 0.0371
-1.8064 khoong thaasy -0.0176
-2.6429 khoong thafnh -0.0199
-1.8189 khoong theer -0.0165
-2.6429 khoong thieen 0.0053
-2.6429 khoong thif -0.0161
-2.6429 khoong thisch 0.1318
-2.6429 khoong veef 0.0010
-1.1805 khoor nhuw -0.0210
-1.1805 khoor sowr 0.0053
-0.8795 khori dieexn 0.0053
-1.3566 khos cos 0.0876
-1.3566 khos khawn 0.0371
-1.3566 khos nghe 0.0467
-1.1805 khosa chawjt 0.0053
-1.1805 khosa hojc -0.0171
-1.1805 khosc </s> 2.6746
-1.1805 khosc nguwowfi -0.0217
-0.8795 khowri cura -0.0230
-1.1805 khu ruwfng 0.0053
-1.1805 khu vuwjc 0.0053
-0.8795 khurng hoarng 0.0371
-1.1805 khusc giuwxa -0.0127
-1.1805 khusc hast -0.0048
-0.8795 khuyeen huwxu 0.0624
-0.8795 khuyfnh vafo 0.0019
-1.1805 kia mowsi -0.0195
-1.1805 kia nisch 0.0371
-0.8795 kieefm chees 0.0053
-0.8795 kieejn </s> 2.6746
-0.8795 kieerm tra 0.0371
-1.1805 kieeru nafy -0.0220
-1.1805 kieeru nuwra -0.0127
-0.3440 kieesm soosng 0.0767
-0.8795 kieesn khoong -0.0234
-0.8795 kijch </s> 2.6746
-1.1805 kijp keso 0.0371
-1.1805 kijp traasn 0.0371
-1.1805 kinh nghieejm -0.0048
-1.1805 kinh tees -0.0048
-1.1805 kisch </s> 2.6746
-1.1805 kisch thisch -0.0048
-0.8795 kisn nuwra -0.0127
-0.8795 kisnh </s> 2.6746
-0.8795 kix luwowxng 0.0371
-0.8795 kyr qua 0.0217
-0.8795 kys howjp -0.0147
-0.8795 la caf 0.0053
-1.1805 laafm anh -0.0225
-1.1805 laafm khi -0.0048
-1.7246 laafn </s> 2.6746
-1.7246 laafn khasc 0.2607
-1.7246 laafn leen -0.0215
-1.7246 laafn nafy -0.0076
-1.7246 laafn nuwxa -0.0179
-1.7246 laafn phu 0.0371
-1.7246 laafn sinh -0.0048
-0.8795 laafy nuwowsc -0.0186
-1.1805 laajp toosc 0.0053
-1.1805 laajp trifnh -0.0048
-1.3566 laajt ddaajt 0.0371
-1.3566 laajt mawjt -0.0147
-1.3566 laajt nhafo 0.0371
-0.8795 laaju </s> 2.6746
-1.5784 laasy curi 0.0371
-1.5784 laasy hai -0.0191
-1.5784 laasy moojt -0.0230
-1.5784 laasy que 0.0371
-1.5784 laasy suwsc 0.0371
-1.3566 laau </s> 2.6746
-1.3566 laau ddowfi -0.0127
-1.3566 laau khoong -0.0175
-2.5870 laf anh -0.0225
-2.5870 laf ba -0.0179
-1.7505 laf bajn -0.0189
-2.5870 laf barn -0.0147
-2.5870 laf bij -0.0191
-2.5870 laf casi -0.0186
-1.7505 laf casnh 0.0156
-2.5870 laf chaan -0.0098
-2.5870 laf chij -0.0098
-2.5870 laf con -0.0216
-2.5870 laf cos -0.0183
-2.5870 laf cuoojc -0.0048
-2.5870 laf cura -0.0152
-2.5870 laf ddur -0.0098
-2.5870 laf do -0.0048
-2.5870 laf gaay -0.0161
-2.5870 laf gawjp -0.0171
-2.5870 laf giori -0.0048
-1.7505 laf heest -0.1213
-1.7505 laf khoong -0.0165
-2.5870 laf lusc -0.0098
-2.5870 laf maasy -0.0098
-2.5870 laf maau 0.0371
-2.5870 laf masi -0.0127
-1.7630 laf moojt -0.0126
-2.5870 laf ngay -0.0147
-2.5870 laf nguwowfi -0.0217
-2.5870 laf nhuw -0.0013
-1.7505 laf nhuwxng -0.0144
-2.5870 laf nuwra -0.0127
-1.7505 laf oong -0.0147
-2.5870 laf quas -0.0191
-2.5870 laf ra -0.0223
-2.5870 laf rust 0.0371
-2.5870 laf suwj -0.0179
-2.5870 laf tifnh -0.0171
-2.5870 laf traam 0.0371
-2.5870 laf trasch 0.2376
-2.5870 laf trasng 0.0053
-2.5870 laf tui 0.0053
-2.5870 laf tuwf -0.0191
-2.5870 laf vaajt -0.0098
-2.5870 laf vieejc -0.0195
-2.1805 lafm awn -0.0179
-2.1805 lafm cho -0.0225
-2.1805 lafm daxy 0.0053
-2.1805 lafm dduwowjc 0.0815
-2.1805 lafm diju 0.0371
-2.1805 lafm khasn 0.0371
-2.1805 lafm luoon -0.0186
-2.1805 lafm maast -0.0048
-2.1805 lafm mowsi -0.0195
-1.3440 lafm nhuw 0.0231
-2.1805 lafm quan 0.0053
-2.1805 lafm ra -0.0223
-2.1805 lafm sao -0.0179
-2.1805 lafm thees -0.0191
-2.1805 lafm thoori 0.0371
-2.1805 lafm thuee -0.0048
-2.1805 lafm tosc -0.0098
-2.1805 lafm trof 0.0371
-2.1805 lafm uwrng 0.0371
-0.8795 lafn da -0.0127
-0.8795 lafng chir -0.0212
-0.3440 lafnh </s> 2.5193
-0.8795 lai </s> 2.6746
-0.8795 laj </s> 2.6746
-0.8795 lajc vowsi -0.0219
-0.8795 lajch xajch 0.0371
-1.2596 laji </s> 2.4775
-2.0836 laji carnh -0.0161
-2.0836 laji cho 0.0035
-2.0836 laji chusng -0.0212
-1.2471 laji cos -0.0176
-2.0836 laji ddi -0.0224
-2.0836 laji ddoofng -0.0205
-2.0836 laji lao 0.0371
-2.0836 laji nhieefu -0.0202
-1.2471 laji nhuwxng -0.0069
-2.0836 laji saan 0.0371
-2.0836 laji taast 0.1265
-0.8795 lao ra -0.0223
-0.8795 lari nhari 0.0371
-0.8795 larnh lost 0.0371
-1.3566 las caay -0.0048
-1.3566 las chuoosi 0.0371
-1.3566 las cor 0.0053
-0.8795 last sau -0.0210
-0.8795 lasy </s> 2.6746
-0.8795 lau chufi 0.0371
-0.8795 lawfng nhawfng 0.0371
-1.1805 lawjn ngujp 0.0371
-1.1805 lawjn xuoosng -0.0147
-1.1805 lawjng ddi 0.0956
-1.1805 lawjng gios -0.0127
-0.8795 lawjp laji 0.0010
-1.5784 lawsm </s> 2.6746
-1.5784 lawsm moosi -0.0048
-1.5784 lawsm nguwowfi -0.0217
-1.5784 lawsm nhuwng -0.0199
-1.5784 lawsm roofi 0.2187
-0.8795 laxm owr -0.0208
-0.8795 le </s> 2.6746
-0.8795 lee thij -0.0171
-0.4559 leen </s> 1.8539
-2.1805 leen anh -0.0225
-2.1805 leen boorng 0.0053
-2.1805 leen coi 0.0053
-2.1805 leen daay -0.0048
-2.1805 leen giaasy 0.0371
-2.1805 leen khu 0.0053
-2.1805 leen nguwja 0.0371
-2.1805 leen qua -0.0179
-1.3440 leen taasm -0.0008
-2.1805 leen trowfi 0.0371
-2.1805 leen vaf -0.0224
-2.1805 leen xe 0.0872
-0.8795 leesu ddang -0.0205
-0.8795 len lesn 0.0371
-0.8795 ler </s> 2.6746
-0.8795 les cho -0.0115
-0.8795 lesc </s> 2.6746
-0.8795 lesn nhifn -0.0161
-1.3566 lex chusng -0.0212
-1.3566 lex ddieen 0.0371
-1.3566 lex khos -0.0048
-0.8795 lieefn </s> 2.6746
-0.8795 lieejt hown 0.1437
-1.1805 lieeju cung 0.0872
-1.1805 lieeju ddaaju 0.0371
-0.8795 lieen lajc 0.0371
-0.8795 lieeu goji -0.0098
-0.8795 lijch suwj -0.0179
-1.1805 lijnh </s> 2.6746
-1.1805 lijnh ra -0.0223
-0.8795 linh hoajt 0.0053
-0.8795 lisp nhajc -0.0098
-1.1805 lixnh bawng 0.0371
-1.1805 lixnh vuwjc 0.0053
-1.3566 lo </s> 2.6746
-1.3566 lo ddi -0.0224
-1.3566 lo toan 0.0371
-0.8795 loa phosng -0.0098
-0.8795 loaji thuoosc 0.0053
-0.8795 loawfng ngoawfng 0.0371
-0.8795 lof gajch 0.0053
-0.8795 lofa </s> 2.6746
-0.7419 lofng </s> 2.5193
-1.5784 lofng bafn 0.0358
-1.5784 lofng cuws -0.0161
-1.5784 lofng ham 0.0371
-0.8795 lojc cojc -0.0048
-0.8795 loojt vor 0.0371
-0.8795 loong ddaf 0.0371
-0.8795 loosc ddang -0.0205
-1.1805 loox chojn -0.0048
-1.1805 loox maxng 0.0371
-1.3566 looxi </s> 2.6746
-1.3566 looxi thowfi -0.0161
-1.3566 looxi tooi -0.0139
-0.8795 lost aasy -0.0161
-1.1805 low ddeexnh 0.0371
-1.1805 low khasch -0.0147
-1.3566 lowfi khuyeen 0.0371
-1.3566 lowfi lex -0.0048
-1.3566 lowfi nuxng 0.0371
-0.8795 lowfn mawst 0.0263
-0.8795 lowjn cos -0.0185
-0.8795 lowr </s> 2.6746
-1.1805 lowsn bawfng -0.0191
-1.1805 lowsn tafi -0.0098
-0.8795 luaajn treen -0.0213
-0.8795 luaajt nhaan -0.0147
-0.8795 lufng sujc 0.0371
-1.8795 luoon </s> 2.6746
-1.8795 luoon coong -0.0019
-1.8795 luoon coos -0.0161
-1.8795 luoon cos -0.0235
-1.8795 luoon duwja 0.0371
-1.8795 luoon luoon -0.0186
-1.8795 luoon noox 0.2376
-1.8795 luoon sawn 0.0371
-1.8795 luoon tor 0.0371
-1.8795 luoon trasnh 0.0053
-0.8795 lusa vixnh 0.0053
-1.4815 lusc khasc 0.2607
-1.4815 lusc tooi -0.0136
-1.4815 lusc tuwj -0.0179
-1.4815 lusc vaaxn 0.0624
-0.8795 luw huwowng 0.0053
-0.8795 luwja chojn -0.0048
-1.4815 luwjc </s> 2.6746
-1.4815 luwjc choosng 0.0053
-1.4815 luwjc luwowjng -0.0048
-1.4815 luwjc thif -0.0161
-1.3566 luwng </s> 2.6746
-1.3566 luwng cofng 0.0371
-1.3566 luwng sieest 0.0371
-1.1805 luwowjn </s> 2.6746
-1.1805 luwowjn quanh 0.0371
-1.3566 luwowjng ddax -0.0061
-1.3566 luwowjng lowsn 0.0053
-1.3566 luwowjng sarn -0.0098
-0.8795 luwowng ba -0.0179
-0.8795 luwowst nhej 0.0371
-0.8795 luwowxng </s> 2.6746
-1.1805 luwra bay 0.0371
-1.1805 luwra ngojn 0.0371
-0.8795 luwu giuwx 0.0053
-1.1805 lux saau -0.0098
-1.1805 lux trer -0.0127
-0.8795 luxy tre 0.0371
-1.1805 luyeejn caajt 0.0371
-1.1805 luyeejn theer -0.0217
-0.8795 luyeesn lasy 0.0371
-1.4815 lys </s> 2.6746
-1.4815 lys chajy 0.1318
-1.4815 lys sown -0.0048
-1.4815 lys thij 0.0263
-0.8795 ma tusy 0.0371
-0.8795 maary tooi -0.0228
-1.3566 maast </s> 2.6746
-1.3566 maast ddi -0.0224
-1.3566 maast moojt -0.0230
-0.6450 maasy em 0.0023
-1.4815 maasy hoom 0.1265
-1.4815 maasy safo 0.0371
-0.8795 maau thuaaxn 0.0371
-1.3217 maf anh 0.0014
-2.1582 maf cawst 0.0371
-2.1582 maf chawrng -0.0127
-2.1582 maf coo 0.0516
-2.1582 maf ddofi 0.0371
-2.1582 maf gaafn 0.0872
-2.1582 maf hajo 0.0371
-2.1582 maf lofng -0.0127
-2.1582 maf lowjn 0.0371
-2.1582 maf nhaf -0.0205
-2.1582 maf nhieefu 0.0047
-2.1582 maf nhuwxng -0.0157
-2.1582 maf sex 0.0070
-2.1582 maf ta -0.0179
-2.1582 maf thieesu -0.0127
-1.3217 maf thooi -0.0929
-2.1582 maf tuw 0.0624
-0.8795 mafng cura -0.0230
-1.3566 mafu dden -0.0098
-1.3566 mafu ddor 0.0053
-1.3566 mafu nuwowsc -0.0186
-1.3566 mai cofn -0.0202
-1.3566 mai sao 0.0217
-1.3566 mai thanh -0.0048
-0.8795 majch </s> 2.6746
-0.8795 majng treen -0.0213
-0.8795 majnh </s> 2.6746
-1.5784 mang ddawjc 0.0053
-1.5784 mang hifnh -0.0098
-1.5784 mang moojt -0.0230
-0.7419 mang tisnh -0.0098
-0.8795 manh moosi -0.0048
-1.1805 marnh </s> 2.6746
-1.1805 marnh ddajn 0.0371
-1.1805 mas nosi -0.0191
-1.1805 mas thieesu -0.0127
-1.5784 masi aasm 0.0053
-1.5784 masi hieen 0.0371
-1.5784 masi ngosi 0.0371
-0.7419 masi tosc 0.0053
-0.8795 masn </s> 2.6746
-1.1805 masu </s> 2.6746
-1.1805 masu tai -0.0048
-1.5784 masy </s> 2.6746
-1.5784 masy carm -0.0127
-1.5784 masy phosng -0.0098
-1.5784 masy tafu -0.0048
-1.5784 masy treen -0.0213
-0.8795 mawjn </s> 2.6746
-1.6576 mawjt bieern 0.0872
-1.6576 mawjt ker -0.0098
-1.6576 mawjt muxi 0.0053
-1.6576 mawjt sasng -0.0048
-1.6576 mawjt taji -0.0048
-1.6576 mawjt trong -0.0083
-0.9585 mawst </s> 2.4775
-1.7826 mawst duf 0.0053
-1.7826 mawst khoong 0.0315
-1.7826 mawst sau -0.0210
-1.7826 mawst truwowsc -0.0147
-1.7826 mawst xeesch 0.0371
-0.8795 maxng vaf -0.0224
-0.8795 may ruri 0.0053
-1.1805 meefm </s> 2.6746
-1.1805 meefm lofng 0.0624
-0.8795 meej nosi -0.0191
-0.8795 meejt mori 0.0371
-0.8795 meesn ddaast -0.0098
-1.7826 mej anh -0.0118
-1.7826 mej bor -0.0147
-1.7826 mej coo -0.0195
-1.7826 mej ddang -0.0205
-1.7826 mej laf -0.0232
-1.7826 mej quawrng 0.0371
-1.7826 mej tooi -0.0228
-1.7826 mej vaf -0.0224
-0.8795 mest ddaast -0.0098
-0.8795 mieejng awn -0.0179
-1.7826 mifnh </s> 2.6746
-1.7826 mifnh baf -0.0161
-1.7826 mifnh dduwfng -0.0048
-1.7826 mifnh maary 0.0371
-1.7826 mifnh soosng -0.0127
-1.7826 mifnh trong -0.0221
-1.7826 mifnh vafo 0.0019
-1.7826 mifnh vif -0.0147
-0.8795 min vixnh 0.0053
-1.5784 minh </s> 2.6746
-1.5784 minh ddeesn -0.0208
-1.5784 minh dduwowjc 0.0815
-1.5784 minh vaf -0.0224
-1.5784 minh vuwowjng 0.0371
-0.8795 mof </s> 2.6746
-0.8795 mojc </s> 2.6746
-1.7246 moji chuyeejn -0.0098
-0.9005 moji nguwowfi -0.0006
-1.7246 moji nowi -0.0048
-0.8881 moji thuws 0.0453
-0.8795 mojt cus -0.0048
-1.1805 mong cho -0.0225
-1.1805 mong muoosn -0.0171
-0.8795 mooi truwowfng -0.0179
-0.8795 moojc </s> 2.6746
-2.5229 moojt baso -0.0048
-2.5229 moojt baxi 0.0371
-2.5229 moojt beejnh -0.0171
-2.5229 moojt buwsc 0.1318
-1.6864 moojt casch -0.0048
-2.5229 moojt cawn 0.0371
-2.5229 moojt chaan -0.0098
-2.5229 moojt chuyeesn 0.0371
-2.5229 moojt cojc -0.0048
-1.6989 moojt con -0.0161
-1.6864 moojt ddieefu -0.1423
-2.5229 moojt ddoofng -0.0205
-2.5229 moojt ddooji -0.0048
-2.5229 moojt ddowjt 0.0053
-2.5229 moojt hafng 0.0053
-2.5229 moojt hooj 0.0371
-2.5229 moojt laafn -0.0161
-2.5229 moojt laf -0.0232
-2.5229 moojt lof 0.0371
-2.5229 moojt luwowjng -0.0048
-2.5229 moojt masi 0.0624
-2.5229 moojt moosi -0.0048
-2.5229 moojt nawm -0.0048
-2.5229 moojt ngafy 0.0169
-2.5229 moojt ngooi 0.0371
-2.5229 moojt nguwowfi -0.0217
-2.5229 moojt nguyeen 0.0624
-2.5229 moojt nhosm -0.0127
-2.5229 moojt phim -0.0147
-2.5229 moojt phisa 0.0053
-2.5229 moojt phosng -0.0098
-2.5229 moojt taasm -0.0127
-2.5229 moojt thuws 0.0358
-2.5229 moojt toasn 0.0371
-2.5229 moojt traji 0.0371
-1.6864 moojt trong -0.1641
-2.5229 moojt vij -0.0098
-2.5229 moojt vufng 0.0371
-2.5229 moojt ys -0.0098
-0.8795 moor </s> 2.6746
-1.3566 moosi </s> 2.6746
-1.3566 moosi tifnh -0.0171
-1.3566 moosi toosi -0.0048
-1.3566 mooxi daan -0.0161
-1.3566 mooxi ngafy 0.0169
-1.3566 mooxi tuaafn -0.0127
-0.8795 mori </s> 2.6746
-0.8795 mosn thijt 0.0371
-0.8795 mosp trasn 0.0371
-1.1805 mow af 0.2376
-1.1805 mow ngafy -0.0186
-1.3566 mowfi ngafi 0.0053
-1.3566 mowfi quys 0.0053
-1.3566 mowfi trieern -0.0127
-1.1805 mown mowrn 0.0371
-1.1805 mown trowsn 0.0371
-1.3566 mowr heest -0.0161
-0.5201 mowr roojng 0.0156
-0.8795 mowrn nhuw -0.0210
-1.9587 mowsi </s> 2.6746
-1.9587 mowsi bawst 0.0836
-1.9587 mowsi chur 0.0053
-1.9587 mowsi ddajt -0.0048
-1.9587 mowsi dduwa -0.0048
-1.9587 mowsi dduwowjc -0.0228
-1.9587 mowsi laf -0.0232
-1.9587 mowsi mof 0.0371
-1.9587 mowsi mua -0.0098
-1.9587 mowsi nafy -0.0220
-1.9587 mowsi toanh 0.0371
-1.9587 mowsi veef 0.0010
-0.8795 moxm ngose 0.0371
-1.4815 mua </s> 2.6746
-1.4815 mua con -0.0216
-1.4815 mua ddoof -0.0048
-1.4815 mua heo 0.0053
-1.1805 muf lofa 0.0371
-1.1805 muf nhajc 0.0872
-0.8795 mufn </s> 2.6746
-1.1805 mujc </s> 2.6746
-1.1805 mujc tieeu -0.0098
-0.8795 mun </s> 2.6746
-0.8795 muoosi vafo 0.0027
-1.7826 muoosn ddoosng 0.0371
-1.7826 muoosn dduwowjc -0.0228
-1.7826 muoosn gawjp -0.0171
-1.7826 muoosn naasu 0.0053
-1.7826 muoosn safnh 0.0053
-1.7826 muoosn thuw 0.0371
-1.7826 muoosn vowj 0.0872
-1.7826 muoosn xem -0.0098
-0.8795 muooxng </s> 2.6746
-1.1805 muwa </s> 2.6746
-1.1805 muwa ddeem 0.0872
-0.8795 muwjc </s> 2.6746
-0.8795 muwowfi nguwowfi -0.0217
-0.8795 muwowfng masn 0.0371
-0.8795 muwowi nafy -0.0220
-0.8795 muwowsn </s> 2.6746
-1.1805 muxi moxm 0.0371
-1.1805 muxi nos -0.0186
-0.3440 myx </s> 2.5193
-1.4815 naang cao -0.0161
-1.4815 naang dduwowfng -0.0186
-1.4815 naang niu 0.0371
-1.4815 naang taj 0.0371
-1.1805 naasu awn -0.0179
-1.1805 naasu nguooji 0.0371
-0.8795 nafnh </s> 2.6746
-1.0430 nafo </s> 2.5193
-1.8795 nafo car -0.0205
-1.8795 nafo cuxng -0.0199
-1.8795 nafo ddaay 0.0169
-1.8795 nafo ddeer -0.0220
-1.8795 nafo mang 0.0624
-1.0430 nafo ngon 0.0053
-1.8795 nafo owr -0.0208
-0.5351 nafy </s> 1.8539
-2.2597 nafy chir -0.0212
-2.2597 nafy cofn 0.0038
-2.2597 nafy ddax -0.0217
-1.4232 nafy ddeesn 0.0048
-2.2597 nafy dduwowjc -0.0228
-2.2597 nafy goji -0.0098
-2.2597 nafy hay -0.0186
-2.2597 nafy khoong -0.0234
-2.2597 nafy luoon -0.0186
-2.2597 nafy maast -0.0048
-2.2597 nafy nhawfm 0.0371
-2.2597 nafy raast -0.0171
-2.2597 nafy suwr 0.0371
-2.2597 nafy tao 0.0371
-2.2597 nafy troong -0.0048
-2.2597 nafy vuwfa -0.0147
-0.5201 najn </s> 2.5193
-1.3566 najn awn 0.0217
-0.8795 najnh nooji -0.0048
-1.1805 nam </s> 2.6746
-1.1805 nam ddas -0.0048
-1.5784 nawfm aarn 0.0371
